tree
version=v3
num_class=1
num_tree_per_iteration=1
label_index=0
max_feature_idx=10
objective=binary sigmoid:1
feature_names=Column_0 Column_1 Column_2 Column_3 Column_4 Column_5 Column_6 Column_7 Column_8 Column_9 Column_10
feature_infos=[0.0003396739130434782:0.9989768366228069] [0.01932367149758454:0.99934895833333337] [0.0045045045045045045:0.99967105263157907] [0:23] [0:22] [0:21] [0:9] [0:1] [0:0.385853753414514] [0:0.46910261343143372] [0:1]
tree_sizes=3283 3322 3325 3347 3345 3345 3337 3349 3345 3355 3359 3345 3364 3369 3366 3361 3381 3360 3346 3364 3353 3371 3364 3372 3373 3377 3391 3377 3392 3379 3378 3376 3388 3368 3374 3379 3371 3371

Tree=0
num_leaves=31
num_cat=0
split_feature=3 0 5 9 3 7 7 7 1 9 2 6 10 9 3 8 9 10 9 1 7 10 4 1 6 8 10 0 1 7
split_gain=28277.6 987.205 293.224 278.768 206.081 180.106 164.054 106.676 99.8149 80.7307 68.7757 49.5648 87.3746 49.2417 46.3963 37.2781 41.6181 35.3716 35.1913 34.1754 62.3023 32.2249 29.621 29.4897 34.6403 29.1291 23.7885 23.1689 44.5489 33.0306
threshold=1.0000000180025095e-35 0.061088588588588601 4.5000000000000009 0.05911241047962066 1.5000000000000002 0.91006810197149945 0.30020449765412044 0.92557652324071771 0.85485104669887291 0.02201548362476961 0.082853618421052641 3.5000000000000004 0.82983597806662235 0.0055043038982890711 1.5000000000000002 0.0016272722646485562 0.17459419644581373 0.98634781771052271 0.12922747056955922 0.24398148148148149 0.74300820523867173 0.50492697644218321 1.5000000000000002 0.13003220611916266 2.5000000000000004 0.12120389817258147 0.83595615304094195 0.023782488628979859 0.84305555555555567 0.24355503571301787
decision_type=2 2 2 2 2 2 2 2 2 2 2 2 2 2 2 2 2 2 2 2 2 2 2 2 2 2 2 2 2 2
left_child=2 4 11 -4 5 6 13 -3 -7 -9 -5 -1 -13 -2 15 -11 18 -10 -17 20 -6 -8 -23 26 -25 -21 -24 29 -29 -15
right_child=1 7 3 10 19 8 21 9 17 14 -12 12 -14 27 -16 16 -18 -19 -20 25 -22 22 23 24 -26 -27 -28 28 -30 -31
leaf_value=-1.0237011357312811 -1.1524134555539867 -1.7115391384928311 -1.082452703214984 -1.3516224803356396 -1.6624526399747617 -1.1485011497414495 -1.6717904946033701 -1.2806048362592444 -1.5990207040456885 -1.6747336450605208 -1.7167058881539319 -1.4859763913467228 -1.0028991166930408 -1.7167058881539319 -1.7167058881539319 -1.548428691673261 -1.7167058881539319 -1.3094150272049221 -1.2264153533865418 -1.7052653113094178 -1.22297975799128 -1.6383054486071325 -1.7167058881539319 -1.389560436925193 -1.6432120742426826 -1.3791106277936449 -1.4511986046168297 -1.1806349925021811 -1.4586086832881033 -1.352968694519602
leaf_weight=1307.565399646759 11.370147064328192 1146.2801776379347 32.682373553514481 9.4630884677171725 9.0970631837844831 29.532555028796196 21.976662680506706 7.9220551550388327 8.3875507414340991 11.758847996592523 11.347608938813208 6.4171928614377967 8.98855012655258 4.6230999380350095 26.898036003112793 5.8658598661422756 4.3429120630025855 8.4824309051036817 8.053106337785719 43.139890000224113 4.9981679767370215 18.885553300380707 8.5457301884889585 27.155548229813576 6.7154662460088721 2.9238871783018103 5.5766292363405219 10.127387136220934 13.385718718171118 5.427492544054985
leaf_count=2108 30 8135 68 40 61 77 149 29 52 80 81 34 13 33 192 34 31 33 26 304 16 123 61 123 44 13 28 29 68 23
internal_value=-1.59644 -1.66774 -1.03508 -1.26462 -1.48261 -1.42911 -1.48799 -1.70448 -1.25935 -1.5797 -1.55069 -1.0258 -1.20412 -1.33227 -1.62132 -1.53586 -1.44645 -1.4534 -1.36212 -1.64287 -1.50662 -1.56674 -1.53221 -1.49047 -1.43985 -1.68456 -1.61186 -1.3932 -1.33888 -1.52028
internal_weight=0 1451.47 1376.46 53.4931 240.351 180.192 133.789 1211.12 46.4025 64.8408 20.8107 1322.97 15.4057 44.9338 56.9188 30.0207 18.2619 16.87 13.919 60.159 14.0952 88.8556 66.8789 47.9934 33.871 46.0638 14.1224 33.5637 23.5131 10.0506
internal_count=12138 9794 2344 189 1267 873 711 8527 162 392 121 2155 47 183 363 171 91 85 60 394 77 528 379 256 167 317 89 153 97 56
is_linear=0
shrinkage=1


Tree=1
num_leaves=31
num_cat=0
split_feature=3 0 3 7 7 7 5 9 2 3 1 9 1 7 5 10 9 8 4 2 0 5 9 10 1 6 10 8 0 0
split_gain=14547.5 828.159 141.475 98.3841 97.681 98.2265 96.8251 132.474 62.128 58.8302 47.1721 40.9024 28.1704 38.8424 28.1248 26.6541 25.3211 23.4041 22.5889 22.4442 22.1854 47.8202 37.5991 21.4312 20.6834 24.1148 19.869 43.7979 19.3518 21.7538
threshold=1.0000000180025095e-35 0.061088588588588601 1.5000000000000002 0.92557652324071771 0.9140387593565743 0.30020449765412044 4.5000000000000009 0.035394200054254144 0.087016369047619058 1.5000000000000002 0.85485104669887291 0.1735588497682955 0.24398148148148149 0.74300820523867173 7.5000000000000009 0.50492697644218321 0.14525120984430864 0.12120389817258147 1.5000000000000002 0.050111607142857152 0.10754543722197234 2.5000000000000004 0.12766256414878618 0.98634781771052271 0.13003220611916266 2.5000000000000004 0.99483435792349739 0.0016272722646485562 0.050060230872319693 0.020691920569637964
decision_type=2 2 2 2 2 2 2 2 2 2 2 2 2 2 2 2 2 2 2 2 2 2 2 2 2 2 2 2 2 2
left_child=6 2 4 -3 5 16 20 -8 14 11 -6 26 13 -4 -9 -7 -2 -14 19 -17 -1 -22 -23 -12 -20 28 27 -5 29 -26
right_child=1 3 12 9 10 15 7 8 -10 -11 23 -13 17 -15 -16 18 -18 -19 24 -21 21 22 -24 -25 25 -27 -28 -29 -30 -31
leaf_value=0.36465171659198037 0.2202881637749825 -0.11247219197328298 -0.06225277577001314 -0.11964261678445021 0.31185551541121048 -0.071537829748440571 0.35458780863481337 0.084647905667433826 -0.11907682993917522 -0.10030632610817983 -0.0023229265582764436 -0.11832251087860644 -0.10585593396078652 0.26424492739305527 0.36166297903654526 0.11278064114384921 -0.021439689115889369 0.169144909271813 -0.01457198021319168 -0.11943089246806185 0.34577748676931175 0.29171309750452135 -0.05090213939528955 0.2138716581785356 0.22386326031874237 -0.045914011872748767 0.27049300392620407 0.18366127061933185 0.33673149514964573 0.044792163610442574
leaf_weight=1760.8984545767307 48.247959598898888 1060.1394300311804 8.7022690773010236 6.793830990791327 36.718251287937164 20.88938707113266 39.405683159828186 9.3065625280141848 10.825995624065397 26.818549066781998 8.3732265532016772 7.4574318826198569 40.071918174624443 6.2683537900447837 6.0461491644382468 6.3762363195419338 4.7610152661800376 3.3537414371967307 13.996900901198385 11.987876057624815 60.589283168315887 6.9434103667736036 5.9459775984287262 10.135307401418684 12.728371843695642 6.6912436485290518 8.7198839485645276 15.911459892988203 5.3321738243103018 14.526152908802031
leaf_count=2027 157 8135 61 50 71 149 55 40 82 200 52 57 304 16 12 35 26 13 89 88 87 13 28 33 44 45 27 58 13 71
internal_value=0 -0.0680127 0.0931579 -0.105113 0.133006 0.0900373 0.358137 0.238747 0.0643777 0.013633 0.246239 0.0922205 -0.0438374 0.0744552 0.193741 0.0278554 0.198577 -0.0846178 0.0568377 -0.0388043 0.362405 0.308569 0.133662 0.116066 0.089806 0.127002 0.142184 0.0929073 0.162508 0.128422
internal_weight=0 1385 259.16 1125.84 200.764 145.537 1899.96 65.5844 26.1787 65.7012 55.2268 38.8826 58.3963 14.9706 15.3527 92.5283 53.009 43.4257 71.639 18.3641 1834.38 73.4787 12.8894 18.5085 53.2748 39.2779 31.4252 22.7053 32.5867 27.2545
internal_count=12138 9794 1267 8527 873 717 2344 189 134 392 156 192 394 77 52 534 183 317 385 123 2155 128 41 85 262 173 135 108 128 115
is_linear=0
shrinkage=0.1


Tree=2
num_leaves=31
num_cat=0
split_feature=3 0 3 7 7 9 5 2 1 1 7 0 1 7 5 0 8 1 9 9 1 10 4 4 8 1 7 8 9 7
split_gain=9614.54 719.409 147.6 73.6189 70.5538 56.6231 54.6483 82.2957 38.0713 30.5712 30.4525 29.3119 28.2846 41.1867 22.6187 35.466 34.1119 18.7609 18.5504 32.0588 29.1555 17.4312 22.603 16.8522 22.2335 25.4806 30.218 14.6705 14.3194 21.3309
threshold=1.0000000180025095e-35 0.086869605055689761 1.5000000000000002 0.9140387593565743 0.30020449765412044 0.047398934619781126 4.5000000000000009 0.12098749732276719 0.46250000000000008 0.24398148148148149 0.58524980618622646 0.042972709551656926 0.75694444444444453 0.81308017725415282 1.0000000180025095e-35 0.011480105882279797 0.015859145941277301 0.15046296296296299 0.17561625762671756 0.12922747056955922 0.90231481481481501 0.99413830306278828 1.5000000000000002 11.500000000000002 0.010636538565388773 0.4245370370370371 0.74683383911637147 0.12120389817258147 0.012808228614207379 0.17711455169333604
decision_type=2 2 2 2 2 2 2 2 2 2 2 2 2 2 2 2 2 2 2 2 2 2 2 2 2 2 2 2 2 2
left_child=6 2 3 4 11 -5 -1 12 -3 10 -4 17 -8 -14 15 -6 -17 -2 19 20 -7 23 -23 24 -16 -26 -27 -11 -19 -30
right_child=1 8 9 5 14 18 7 -9 -10 27 -12 -13 13 -15 21 16 -18 28 -20 -21 -22 22 -24 -25 25 26 -28 -29 29 -31
leaf_value=0.27988491297130763 0.023312536999417585 0.15832758585744622 -0.11782255005601372 0.24197749561104481 -0.071793715885934403 0.19047883822133249 0.27810017230753165 -0.072805425345203109 -0.11019600046942346 -0.10770359175527583 0.17214912365673904 0.035031870962700246 -0.02301029592992199 0.27518921250735784 -0.10565226480052854 0.23991968677861461 -0.041633282636821214 0.26250227077537924 -0.12034728866610905 0.20555452644104696 -0.080484459404774694 -0.047811782959980093 0.20224879340850441 0.18563724036735862 0.19098840330184311 -0.092678243948301139 0.19006533660305899 0.070836509589622579 0.23058268447793476 0.0076632136682852113
leaf_weight=2118.4778536111116 6.302761808037757 5.3088931292295447 5.7773092389106742 48.957341387867928 9.9614659696817416 5.9948054105043438 44.070493414998055 10.123197615146635 969.58503398299217 56.677050583064556 9.7066197991371137 18.545078098773956 8.9741341695189494 9.5720588490366918 33.790738463401794 14.728131830692293 6.079357221722602 22.241658046841621 4.1435247287154189 16.19035904109478 11.762631103396414 6.9565718621015531 7.5246114879846573 3.1823022067546836 6.3264290690422085 18.611980959773067 4.743189960718154 5.0090321302413932 10.857352495193483 7.0992752760648719
leaf_count=2155 27 28 45 90 67 15 53 74 8026 465 32 100 44 18 247 45 39 43 31 53 78 49 28 13 30 137 22 24 28 32
internal_value=0 -0.064996 0.0599847 0.0955463 0.0585083 0.170837 0.276959 0.191733 -0.108734 -0.0616718 0.0639559 0.141331 0.2345 0.130896 0.0103667 0.0833728 0.157658 0.183724 0.0794017 0.103782 0.0109911 -0.0173193 0.0821229 -0.0389238 -0.0501825 0.0129664 -0.035256 -0.0932058 0.208875 0.14245
internal_weight=0 1316.06 341.17 264 176.951 87.0487 2191.22 72.7399 974.894 77.17 15.4839 65.0461 62.6167 18.5462 111.905 30.769 20.8075 46.501 38.0913 33.9478 17.7574 81.1358 14.4812 66.6546 63.4723 29.6816 23.3552 61.6861 40.1983 17.9566
internal_count=12138 9794 1740 1174 907 267 2344 189 8054 566 77 230 115 62 677 151 84 130 177 146 93 526 77 449 436 189 159 489 103 60
is_linear=0
shrinkage=0.1


Tree=3
num_leaves=31
num_cat=0
split_feature=3 0 3 7 7 9 5 9 1 1 7 10 0 7 10 1 5 9 7 9 1 7 7 2 4 9 10 6 10 2
split_gain=7018.09 632.01 114.814 52.4417 51.8382 38.2789 38.1435 61.1805 32.5036 26.7897 34.1244 21.8636 22.8894 20.1497 18.6603 20.6289 26.0608 18.5374 20.9347 18.1185 32.8526 15.3957 21.7338 18.6326 16.9718 23.1987 14.7299 14.0555 24.2287 13.6339
threshold=1.0000000180025095e-35 0.086869605055689761 1.5000000000000002 0.9140387593565743 0.30020449765412044 0.047398934619781126 4.5000000000000009 0.16049507792124321 0.46250000000000008 0.2310185185185186 0.58524980618622646 0.29828197941862911 0.053800050050050056 0.16066501412291087 0.50492697644218321 0.91712962962962974 6.5000000000000009 0.035394200054254144 0.53606205354367531 0.016531758961973755 0.91474074074074074 0.74683383911637147 0.57686687352299237 0.056838199806949811 8.5000000000000018 0.011084037358242526 0.60214552775381092 3.5000000000000004 0.84032305500448223 0.13550477756892235
decision_type=2 2 2 2 2 2 2 2 2 2 2 2 2 2 2 2 2 2 2 2 2 2 2 2 2 2 2 2 2 2
left_child=6 2 3 4 11 -5 27 17 -3 10 -4 12 13 -2 -6 21 -17 -8 -19 -13 26 22 23 -16 -24 -26 -21 -1 -29 -10
right_child=1 8 9 5 14 -7 7 -9 29 -11 -12 19 -14 -15 15 16 -18 18 -20 20 -22 -23 24 -25 25 -27 -28 28 -30 -31
leaf_value=0.2343271025279261 0.15441376423247533 0.12796570160553211 -0.11584164427204763 0.19815136927702764 -0.072813296758934609 0.068314847985702754 0.22756405896668991 -0.072349314970715617 -0.047995928073571129 -0.085126514844643911 0.22813467815368296 0.22592606473846952 -0.12145270377497691 -0.05709383376214764 0.1548706260710831 -0.093743337889390849 0.23162951663808695 -0.0094565364770435069 0.20713822858672956 0.093625792448846737 0.28017596035051817 0.12841247268480982 -0.12128554799626622 -0.046631331740206394 -0.05637907287247116 0.24317686132109723 -0.13191677980551861 0.043552322203607691 0.24332492783318116 -0.11052553552252072
leaf_weight=2250.4185316860676 16.848425045609481 5.8767213374376288 5.0762067735195142 53.519460290670395 22.465437345206738 39.441669292747974 49.304088920354843 9.7357664853334409 36.346828415989876 61.707140535116196 6.6785680651664734 22.520682632923126 6.000029742717742 6.1477054953575125 15.738330170512201 19.847773373126987 2.8101756721734992 8.1582353934645671 9.8504359722137433 6.5039164423942584 6.0474204719066611 20.808175668120384 12.576976135373117 6.4777628332376471 7.4881939515471441 3.9484834596514702 5.2193227410316467 10.529876172542574 14.336882829666136 858.01961455494165
leaf_count=2108 48 28 43 90 177 177 55 69 298 509 14 39 43 28 63 153 13 44 21 24 18 77 92 42 49 11 30 35 12 7728
internal_value=0 -0.0622093 0.0522642 0.081989 0.0506985 0.143064 0.231158 0.161959 -0.106444 -0.0587697 0.0795912 0.118704 0.0524867 0.0978701 0.00868843 0.0291015 -0.0533886 0.195848 0.109017 0.166358 0.0908666 0.0569821 0.0248311 0.0961167 -0.0411184 0.0470418 -0.00678839 0.233501 0.158731 -0.107984
internal_weight=0 1248.12 347.872 274.41 181.449 92.9611 2352.33 77.0485 900.243 73.4619 11.7548 69.2875 28.9962 22.9961 112.161 89.6959 22.6579 67.3128 18.0087 40.2913 17.7707 67.0379 46.2297 22.2161 24.0137 11.4367 11.7232 2275.29 24.8668 894.366
internal_count=12138 9794 1740 1174 907 267 2344 189 8054 566 57 230 119 76 677 500 166 120 65 111 72 334 257 105 152 60 54 2155 47 8026
is_linear=0
shrinkage=0.1


Tree=4
num_leaves=31
num_cat=0
split_feature=3 0 3 1 1 7 5 9 7 1 7 7 1 8 10 2 1 2 10 8 10 10 9 8 9 8 5 7 8 7
split_gain=5412.06 558.808 90.826 41.1536 37.4993 44.4437 31.859 103.811 37.7353 28.3345 25.1982 39.9795 23.5342 20.816 20.4095 19.3736 33.4437 17.8812 18.1455 17.2211 18.4023 16.5697 50.6131 32.0983 16.0527 24.6667 14.7149 14.3289 14.0308 13.8521
threshold=1.0000000180025095e-35 0.086869605055689761 1.5000000000000002 0.54730273752012892 0.14694444444444449 0.74683383911637147 2.5000000000000004 0.15121915726044169 0.70869378168880315 0.46250000000000008 0.8528871182644141 0.19174878179118401 0.24398148148148149 0.0047847803682333195 0.24035881347498136 0.040264724310776955 0.90231481481481501 0.071192781987384698 0.9888837400885595 0.0075781954300794359 0.39776477801529136 0.99483435792349739 0.11374029824390437 0.0016758953287928206 0.003988922874976362 0.00076559512022765172 1.5000000000000002 0.9727917031450648 0.12120389817258147 0.88229491428473661
decision_type=2 2 2 2 2 2 2 2 2 2 2 2 2 2 2 2 2 2 2 2 2 2 2 2 2 2 2 2 2 2
left_child=6 2 3 4 5 24 -1 19 -9 -3 11 14 13 -4 26 16 -13 -6 -19 -8 -21 22 -12 27 25 -2 -5 -24 -14 -11
right_child=1 9 12 10 17 -7 7 8 -10 29 21 15 28 -15 -16 -17 -18 18 -20 20 -22 -23 23 -25 -26 -27 -28 -29 -30 -31
leaf_value=0.20631646703617013 0.19334711255402673 0.10618702795427966 0.12871502575625121 -0.12560812470874305 0.1665599237306653 0.26951320145001662 0.20308377975866243 -0.13757312427175136 0.115523583798575 -0.10915332881039295 -0.10099334486468875 -0.12105517243692894 -0.1034911954825226 -0.11817746245971633 0.19496567023196171 -0.093138432375956648 0.18417511759604754 0.022780618512517753 0.18617541769029028 0.036681170162483949 0.16956146666930014 0.15014428529708612 -0.12244206445677822 0.20989281210078983 -0.093318506385368497 -0.12203697653549501 0.10875112881246374 0.083854880585645941 0.072871869658893237 -0.053704304684039667
leaf_weight=2045.1641726344824 6.067404620349409 6.3456205874681464 10.881045073270796 4.8014498651027697 73.782706782221794 5.8120358586311331 245.71235379576683 13.459871530532839 10.47547973692417 776.32656412571669 15.923027992248533 6.6672680228948575 49.135995343327522 4.9768718332052222 11.840324357151983 37.271957866847515 7.7767763584852219 20.867783211171631 10.079490594565867 11.649806901812552 98.888623006641865 21.541877649724483 5.3341737762093571 17.201342202723026 17.363844960927963 4.1941115856170654 6.0611533224582672 9.1290623843669874 4.9669399112462989 47.828970827162266
leaf_count=1826 21 28 36 32 158 7 234 89 25 7617 97 49 465 41 31 289 23 85 19 32 138 56 38 53 124 31 24 37 24 409
internal_value=0 -0.0595751 0.0460794 0.0714048 0.110363 0.0181632 0.201375 0.174792 -0.0268035 -0.104315 0.0339073 -0.00647359 -0.0558997 0.0512299 0.10415 -0.0550365 0.043283 0.139799 0.0759981 0.188337 0.155557 0.0773779 0.0444382 0.117571 -0.0347177 0.0644426 0.00516047 0.00777068 -0.0873001 -0.105935
internal_weight=0 1182.18 351.677 281.716 138.167 33.4374 2425.35 380.186 23.9354 830.501 143.548 74.4189 69.9609 15.8579 22.7029 51.716 14.444 104.73 30.9473 356.251 110.538 69.1295 47.5876 31.6646 27.6254 10.2615 10.8626 14.4632 54.1029 824.156
internal_count=12138 9794 1740 1174 445 183 2344 518 114 8054 729 448 566 77 87 361 72 262 104 404 170 281 225 128 176 52 56 75 489 8026
is_linear=0
shrinkage=0.1


Tree=5
num_leaves=31
num_cat=0
split_feature=3 0 3 7 6 1 9 9 1 5 9 2 10 1 1 5 7 7 7 0 10 9 7 7 5 10 7 8 10 8
split_gain=4320.13 497.797 109.362 37.4378 31.5161 30.5197 27.5657 27.4685 26.9239 26.8271 38.8475 28.3766 24.8107 23.0628 21.5538 20.6247 19.3219 17.8794 17.5287 17.3001 16.5518 16.1273 15.4345 14.6624 26.6329 13.7102 13.0983 12.4863 18.4017 18.8423
threshold=1.0000000180025095e-35 0.13501993113066488 1.5000000000000002 0.9140387593565743 2.5000000000000004 0.93194444444444469 0.16344260537137933 0.1411553087245839 0.85485104669887291 4.5000000000000009 0.035394200054254144 0.087016369047619058 0.99250841750841767 0.15046296296296299 0.24398148148148149 2.5000000000000004 0.94060378117080157 0.35840949369518049 0.58524980618622646 0.063468768247414084 0.83595615304094195 0.003988922874976362 0.17204276181512063 0.30020449765412044 1.0000000180025095e-35 0.25304863609933492 0.63672893556882615 0.017863998082083683 0.97729164264714374 0.010636538565388773
decision_type=2 2 2 2 2 2 2 2 2 2 2 2 2 2 2 2 2 2 2 2 2 2 2 2 2 2 2 2 2 2
left_child=9 2 3 4 5 13 7 8 -5 -1 -11 19 16 20 18 -7 -10 -17 -4 -12 21 -2 25 -15 26 -16 -25 28 29 -26
right_child=1 -3 14 6 -6 15 -8 -9 12 10 11 -13 -14 23 22 17 -18 -19 -20 -21 -22 -23 -24 24 27 -27 -28 -29 -30 -31
leaf_value=0.18219766741520022 0.062257944439979368 -0.10633520312880318 -0.11412667939449175 0.15647453221485402 -0.075376891863970327 -0.11845798115105835 -0.023413454035577229 0.29459871906327079 0.093587534983946077 0.17507389184774044 0.0017336073565807379 -0.11599108628893257 0.13246605229193301 0.12929822925934251 -0.04282016804009775 0.16915987545890032 -0.12477941070402128 -0.055362613403713436 0.11390520115305872 0.18982141550269807 0.11423148795841254 -0.11990545163110995 -0.098294427614023627 0.057104487789295104 -0.08063810048428835 0.21891115980544643 0.2096398466095212 -0.080800349904803018 0.19976008987065261 0.14722550708195406
leaf_weight=2356.6823600381613 7.5714343637228074 724.34877719730139 4.8228498622775104 51.961154878139496 22.26072933524847 15.886407271027567 13.488864704966543 9.0972115695476514 6.5271879360079792 51.982360854744911 9.5684818476438576 9.0855194330215436 15.49181295186281 53.505866438150406 6.4250446110963804 6.5241024568676931 10.685736067593096 7.7719214707612991 11.197969019412993 10.001924350857733 7.9961699545383444 13.571496233344076 69.196079380810261 10.289425432682039 11.35667540878058 2.9068940952420235 12.430519774556158 12.085795864462851 5.7387110367417327 5.3331827074289313
leaf_count=2155 37 7693 45 76 171 131 73 18 29 55 33 82 36 124 49 23 73 61 32 19 31 107 698 45 76 16 25 89 13 23
internal_value=0 -0.0571249 0.0333174 0.0629106 0.0365115 0.0511574 0.110249 0.129478 0.111736 0.180257 0.12354 0.0300576 0.040656 0.0708357 -0.0604478 -0.0400408 -0.0419741 0.0471 0.0452593 0.0978604 -0.00832215 -0.0546714 -0.0820135 0.0916645 0.0564824 0.038709 0.14056 0.00113659 0.0452889 -0.00782512
internal_weight=0 1118.47 394.123 299.574 192.322 170.062 107.252 93.7631 84.6659 2437.32 80.6383 28.6559 32.7047 139.879 94.5488 30.1824 17.2129 14.296 16.0208 19.5704 29.1391 21.1429 78.528 110.74 57.2343 9.33194 22.7199 34.5144 22.4286 16.6899
internal_count=12138 9794 2101 1261 956 785 305 232 214 2344 189 134 138 570 840 215 102 84 77 52 175 144 763 395 271 65 70 201 112 99
is_linear=0
shrinkage=0.1


Tree=6
num_leaves=31
num_cat=0
split_feature=3 0 3 1 5 9 7 1 7 7 7 0 2 4 1 10 8 7 9 7 9 8 9 9 10 8 8 2 7 4
split_gain=3529.95 445.921 89.2994 31.8885 25.8846 76.8588 24.3357 23.6177 29.322 21.2665 29.0162 19.2187 17.0001 24.7417 16.9387 19.0107 14.2065 13.2903 21.7096 11.8628 11.3815 17.9699 11.0896 21.114 40.7169 17.3971 16.2751 11.0168 10.458 10.3484
threshold=1.0000000180025095e-35 0.13501993113066488 1.5000000000000002 0.54730273752012892 2.5000000000000004 0.15516320045462925 0.70869378168880315 0.14694444444444449 0.74683383911637147 0.8528871182644141 0.19174878179118401 0.030793650793650793 0.040264724310776955 4.5000000000000009 0.70543478260869585 0.40044774604670397 0.031727054902309482 0.97095834645315116 0.07783919929379822 0.74300820523867173 0.003988922874976362 0.00076559512022765172 0.17561625762671756 0.12922747056955922 0.99483435792349739 0.0078530302390427652 0.0016758953287928206 0.025900900900900907 0.46962841352339274 7.5000000000000009
decision_type=2 2 2 2 2 2 2 2 2 2 2 2 2 2 2 2 2 2 2 2 2 2 2 2 2 2 2 2 2 2
left_child=4 2 3 7 27 14 -7 8 20 10 16 19 13 -12 -6 -16 -5 -3 -19 -4 21 -2 23 24 25 -11 -25 28 -1 -9
right_child=1 17 11 9 5 6 -8 29 -10 22 12 -13 -14 -15 15 -17 -18 18 -20 -21 -22 -23 -24 26 -26 -27 -28 -29 -30 -31
leaf_value=0.104194389813219 0.14426896073544318 -0.10605209221113461 -0.037971405419379357 -0.025182145330743061 0.16163300162422756 -0.14046145423650486 0.075822908340339945 0.12319873843415335 0.20812440060114437 -0.10327106612445164 0.14279813723399401 -0.083468910335959448 -0.091436581310493148 -0.12203792481285228 -0.082353149564141095 0.12082205791615425 0.13315837393797816 0.26493923822035764 -0.11242130642575786 0.11387278135704525 -0.086898424104571714 -0.1210625889033109 -0.054386336931414953 0.045336685200057625 0.1273472624519271 0.13089237134797171 0.20345911047984011 0.17160663976027776 0.15855990639809181 0.034503404742190123
leaf_weight=43.138480424880981 6.9165591597557086 658.99978771060705 12.289735630154611 8.8431424573063868 292.92863713949919 11.789989195764067 9.310455456376074 97.666881270706654 6.3267284035682669 18.811210058629516 8.7251314744353277 68.532525666058064 37.252763822674751 5.9217047095298758 4.986135706305503 60.293522700667381 15.77329049259424 2.5511360168457022 3.7885638996958733 8.850129231810568 15.437738083302973 4.0454559326171875 7.5752808749675742 10.65574970841408 21.96888442337513 3.8164826557040206 16.728275209665298 1786.9215985536575 196.8285840600729 15.201942615211008
leaf_count=61 21 7641 100 46 295 83 23 219 7 126 26 720 322 46 21 96 46 12 40 20 124 31 56 43 49 17 34 1572 193 48
internal_value=0 -0.0548448 0.0298588 0.0559031 0.164418 0.140442 -0.0450272 0.0895652 0.0147686 0.0245005 -0.0131391 -0.057757 -0.0555497 0.0357251 0.151368 0.105303 0.0762765 -0.104666 0.039431 0.0255976 -0.0315694 0.0463502 0.0607019 0.0728139 0.0303739 -0.0637761 0.14193 0.168905 0.148787 0.111253
internal_weight=0 1056.68 391.34 301.667 2406.2 379.309 21.1004 145.595 32.7265 156.072 76.516 89.6724 51.8996 14.6468 358.208 65.2797 24.6164 665.339 6.3397 21.1399 26.3998 10.962 79.5559 71.9806 44.5966 22.6277 27.384 2026.89 239.967 112.869
internal_count=12138 9794 2101 1261 2344 518 106 450 183 811 486 840 394 72 412 117 92 7693 52 120 176 52 325 269 192 143 77 1826 254 267
is_linear=0
shrinkage=0.1


Tree=7
num_leaves=31
num_cat=0
split_feature=3 0 3 1 5 9 7 1 0 7 6 8 10 8 8 7 9 9 1 0 7 4 9 6 2 10 2 7 9 9
split_gain=2934.29 400.827 73.1408 25.1126 23.4591 63.6801 25.5225 18.557 16.9999 16.9756 24.3629 26.5878 15.5807 14.6395 14.6897 18.1627 13.0728 15.598 13.1235 14.1182 12.2166 21.7122 11.1334 10.2005 9.75611 9.17744 12.4894 9.14061 8.80048 15.5073
threshold=1.0000000180025095e-35 0.13501993113066488 1.5000000000000002 0.54730273752012892 2.5000000000000004 0.15121915726044169 0.70869378168880315 0.39575281803542678 0.030793650793650793 0.8528871182644141 1.5000000000000002 0.031727054902309482 0.94511417735818615 0.0075781954300794359 0.031727054902309482 0.34408364734748187 0.003988922874976362 0.0067790743307270104 0.1294814814814815 0.019274903785773356 0.97095834645315116 1.5000000000000002 0.0024480117584892952 1.5000000000000002 0.025900900900900907 0.97729164264714374 0.040264724310776955 0.46962841352339274 0.17561625762671756 0.12922747056955922
decision_type=2 2 2 2 2 2 2 2 2 2 2 2 2 2 2 2 2 2 2 2 2 2 2 2 2 2 2 2 2 2
left_child=4 2 3 7 24 13 -7 12 23 10 11 -5 16 -6 15 -15 22 -18 -19 -20 -3 -22 -2 -4 27 -12 -27 -1 29 -11
right_child=1 20 8 9 5 6 -8 -9 -10 28 25 -13 -14 14 -16 -17 17 18 19 -21 21 -23 -24 -25 -26 26 -28 -29 -30 -31
leaf_value=0.09529603333867652 -0.01041568337181459 -0.10458502178415606 0.077412616595742681 -0.056690592005694762 0.15346918727464848 -0.13573566576826313 0.076948041814957721 0.13181223844433759 -0.080539848906364245 0.027215814686816699 -0.098379276949672717 0.12589924830352878 0.10896392715388753 -0.04454375097164643 0.13768344847857969 0.10342283661663101 -0.13006405831720158 -0.11533312964393623 0.08508647602779712 -0.06955486066890619 -0.11247205402351557 0.26344301210507731 0.15083304886946433 -0.066243228517712374 0.15900133687672047 0.11925189745174845 -0.069721899067520229 0.14655892206537849 -0.050911056698078744 0.12156984398403894
leaf_weight=42.483729600906372 6.4779492840170887 604.22689738124609 13.069822743535044 13.428692579269407 239.01827016472816 11.752031572163107 10.852901384234427 46.456382028758526 64.151222661137581 44.370910920202732 26.69345036894083 19.636751018464565 35.315198376774788 11.490922816097735 68.927420325577259 29.83370803296566 7.9041268676519385 5.7385259270668021 25.025828421115875 7.7264652103185645 3.9543751180171958 2.5128342658281326 12.630861975252627 7.9490415453910819 1738.1438624560833 5.5041204243898383 9.5923532545566541 191.89770492911339 7.2979975566267958 28.675997041165829
leaf_count=61 29 7641 56 88 234 89 25 80 720 192 248 59 71 32 92 46 60 54 81 42 43 9 33 64 1572 14 77 193 56 77
internal_value=0 -0.0526388 0.0268917 0.0499412 0.152075 0.129037 -0.0336236 0.0795201 -0.0549668 0.0218727 -0.012391 0.051745 0.0554243 0.139565 0.10942 0.0622785 0.0265594 -0.00211098 0.0241643 0.0486056 -0.103122 0.0335897 0.0961692 0.023084 0.156419 -0.0631373 -0.000822727 0.137267 0.0537953 0.0642563
internal_weight=0 998.34 387.646 302.476 2344.4 371.875 22.6049 147.275 85.1701 155.2 74.8554 33.0654 100.819 349.27 110.252 41.3246 65.5038 46.3949 38.4908 32.7523 610.694 6.46721 19.1088 21.0189 1972.53 41.7899 15.0965 234.381 80.3449 73.0469
internal_count=12138 9794 2101 1261 2344 518 114 450 840 811 486 147 370 404 170 78 299 237 177 123 7693 52 62 120 1826 339 91 254 325 269
is_linear=0
shrinkage=0.1


Tree=8
num_leaves=31
num_cat=0
split_feature=3 0 3 0 5 1 9 7 6 9 7 0 10 4 5 2 7 4 2 7 4 5 1 7 8 9 4 0 10 10
split_gain=2470.46 361.26 60.0884 22.7853 36.4543 24.0345 20.6333 23.2184 20.7535 17.3624 15.4799 15.0573 14.6354 17.1631 14.9662 11.7237 11.2331 19.2566 10.3424 11.9282 11.2226 10.0827 13.6028 16.2811 24.8941 9.39777 11.2223 9.26206 11.6571 20.7022
threshold=1.0000000180025095e-35 0.13501993113066488 1.5000000000000002 0.089843223490593913 1.5000000000000002 0.99829282407407416 0.17561625762671756 0.9140387593565743 2.5000000000000004 0.060756694805298113 0.30020449765412044 0.030793650793650793 0.72391280979446948 1.5000000000000002 6.5000000000000009 0.033517387218045119 0.97095834645315116 2.5000000000000004 0.025900900900900907 0.44993009213842711 7.5000000000000009 3.5000000000000004 0.74212962962962969 0.81308017725415282 0.030175533321829897 0.0055043038982890711 8.5000000000000018 0.032541231929461338 0.94069260741937544 0.9888837400885595
decision_type=2 2 2 2 2 2 2 2 2 2 2 2 2 2 2 2 2 2 2 2 2 2 2 2 2 2 2 2 2 2
left_child=3 2 6 18 -5 9 7 8 10 -6 25 -4 -12 14 -14 -15 -3 -18 19 20 -1 -20 -23 24 -24 -2 -27 -9 -29 -30
right_child=1 16 11 4 5 -7 -8 27 -10 -11 12 -13 13 15 -16 -17 17 -19 21 -21 -22 22 23 -25 -26 26 -28 28 29 -31
leaf_value=0.11166764359816064 0.1342743998830303 -0.10319705403865853 0.020578402602790227 0.14856257685425153 0.1139269875078657 0.099818222043924598 -0.079583989714094222 0.12789835975568639 -0.069615826981409903 -0.092155958986233577 -0.039034604537455192 -0.077619039454873015 -0.083579484458987885 -0.04982425603966905 0.14877002060871244 0.10187027471400366 -0.11196242628365422 0.23915053030274974 0.14898037444199652 0.13764721701494401 0.012798548181199715 0.13633055131251734 -0.17947404688549026 0.1286936692499685 0.10627707732993284 0.069903674856982165 -0.07192457373715036 0.20265547382807828 -0.0064072433440548367 0.10823859482737207
leaf_weight=46.921662747859955 19.435635730624199 553.70729438960552 21.094022870063782 60.496434092521667 5.3613401055336025 24.493220932781696 12.782398633658884 37.01096248626709 19.20032212138176 17.21478021889925 34.044374994933605 60.119550757110119 14.294989652931692 5.9778814911842337 3.4391729384660712 34.487235531210899 3.8898415863513938 2.6101673468947411 1756.4502189457417 199.816167101264 15.199849754571913 109.26712460815907 5.7579394802451151 14.404309108853338 6.4795590788125992 46.880133680999279 6.3325893580913535 5.7130133658647528 30.148490779101849 32.98141348361969
leaf_count=60 29 7641 120 59 7 48 108 47 156 98 257 720 130 32 11 100 45 7 1650 207 34 120 27 20 14 144 29 16 133 69
internal_value=0 -0.0504536 0.0242654 0.142129 0.0972125 0.0312141 0.0447558 0.0502374 0.0287792 -0.0432157 0.0402365 -0.0521137 0.0130453 0.0435101 -0.0385201 0.0794606 -0.101663 0.0290318 0.144372 0.125749 0.0874764 0.14695 0.120709 0.0566392 -0.0281734 0.074762 0.0530254 0.0875557 0.0658669 0.053488
internal_weight=0 944.149 383.942 2261.86 107.566 47.0693 302.729 289.946 184.092 22.5761 164.892 81.2136 92.2437 58.1993 17.7342 40.4651 560.207 6.50001 2154.3 261.938 62.1215 1892.36 135.909 26.6418 12.2375 72.6484 53.2127 105.854 68.8429 63.1299
internal_count=12138 9794 2101 2344 212 153 1261 1153 888 105 732 840 530 273 141 132 7693 52 2132 301 94 1831 181 61 41 202 173 265 218 202
is_linear=0
shrinkage=0.1


Tree=9
num_leaves=31
num_cat=0
split_feature=3 0 3 5 9 10 1 0 1 1 10 1 9 9 7 5 9 8 4 7 2 1 1 9 10 2 2 7 7 1
split_gain=2099.98 326.208 62.3359 21.7267 50.4273 20.0167 19.0557 15.2544 15.1598 13.9159 13.6176 12.0462 13.4006 11.7315 19.2599 10.541 9.44637 16.511 18.9562 9.03514 8.8295 8.76502 15.358 10.1797 18.1361 9.66631 8.54464 8.10305 29.8809 7.93316
threshold=1.0000000180025095e-35 0.16717428762122702 1.5000000000000002 2.5000000000000004 0.15121915726044169 0.8865439778566333 0.54730273752012892 0.030793650793650793 0.39575281803542678 0.70543478260869585 0.40044774604670397 0.66805555555555562 0.17561625762671756 0.0051670898892941883 0.24355503571301787 15.500000000000002 0.02201548362476961 0.0012671833122213348 10.500000000000002 0.74300820523867173 0.025900900900900907 0.85132850241545899 0.88657407407407418 0.068274008082631885 0.99959709911361816 0.13550477756892235 0.034540486453201978 0.16808516397152942 0.15061501235065791 0.94704106280193245
decision_type=2 2 2 2 2 2 2 2 2 2 2 2 2 2 2 2 2 2 2 2 2 2 2 2 2 2 2 2 2 2
left_child=3 2 6 20 9 -6 8 19 13 -5 -11 -8 21 -2 -15 -3 17 -16 -19 -4 -1 -13 -23 24 25 -24 -25 28 -9 -14
right_child=1 15 7 4 5 -7 11 27 -10 10 -12 12 29 14 16 -17 -18 18 -20 -21 -22 22 23 26 -26 -27 -28 -29 -30 -31
leaf_value=0.11945980411607243 0.085611236577597921 -0.10277111073968087 -0.037879091813972768 0.13062176229906897 -0.13595411163106366 0.057120229518449778 -0.084725258413730686 -0.11149353425257424 0.11328338266222776 -0.083576599599706716 0.091508274043207327 0.092490367651049288 0.08877289466835056 -0.14167695553551005 0.074872187789955705 0.12958214846878391 0.10681343740830679 -0.10133515751637807 0.17406378027105651 0.093809753777771163 0.14088098802888446 -0.12649650379195435 -0.12127273331163879 0.19094057904460859 0.064159704286736993 0.10371919676661145 0.042967194671680073 -0.091788674452715421 0.32869360648294554 -0.11578585487119586
leaf_weight=218.77014268934727 41.389169424772263 498.49332492053509 12.204933151602747 267.16515123844147 10.512256711721422 10.976194679737089 10.856656976044176 5.1815119832754126 47.66976623237133 4.8253211304545394 55.954419940710068 21.208960391581059 2.3509009107947341 6.835017852485179 19.607174545526505 1.9601511508226384 14.085722275078295 15.487173512578012 2.9803214371204367 9.0905005484819394 1597.515049174428 6.5239686146378508 13.880497336387636 4.1232098937034598 14.398510023951532 2.2141284942626944 72.853107899427414 57.695491924881935 2.19556924700737 9.7951032072305662
leaf_count=254 115 7509 100 293 86 28 90 61 81 20 91 80 15 37 60 16 38 113 7 20 1572 50 123 6 43 17 332 776 11 94
internal_value=0 -0.0483295 0.0199033 0.133908 0.111072 -0.0373327 0.0410631 -0.0551288 0.0668481 0.120796 0.0776082 0.0169325 0.0244226 0.0447973 0.0161637 -0.101861 0.0368469 0.0109627 -0.0568907 0.0183357 0.138301 0.0334615 0.0224789 0.0315225 -0.0173768 -0.0903207 0.0508933 -0.0791705 0.0195151 -0.0761928
internal_weight=0 893.081 392.627 2165.72 349.433 21.4885 306.259 86.368 148.054 327.945 60.7797 158.205 147.348 100.385 58.9954 500.453 52.1604 38.0747 18.4675 21.2954 1816.29 135.202 113.993 107.469 30.4931 16.0946 76.9763 65.0726 7.37708 12.146
internal_count=12138 9794 2269 2344 518 114 1301 968 451 404 111 850 760 370 255 7525 218 180 120 120 1826 651 571 521 183 140 338 848 72 109
is_linear=0
shrinkage=0.1


Tree=10
num_leaves=31
num_cat=0
split_feature=3 0 3 5 9 9 7 2 6 10 9 8 0 5 7 0 2 4 4 7 4 8 10 7 8 10 10 10 4 2
split_gain=1799.24 295.116 51.8859 21.3054 23.6248 15.8995 18.3602 15.3094 14.415 24.4393 14.2402 17.5398 13.6415 13.4993 13.494 12.7252 10.8188 10.3447 10.1185 28.4635 19.3389 15.213 9.98475 12.1502 14.4407 10.9171 14.4441 12.7672 12.3076 9.51882
threshold=1.0000000180025095e-35 0.16717428762122702 1.5000000000000002 4.5000000000000009 0.035394200054254144 0.16344260537137933 0.9140387593565743 0.087016369047619058 3.5000000000000004 0.82983597806662235 0.15516320045462925 0.0020658755911563066 0.030793650793650793 5.5000000000000009 0.30020449765412044 0.063468768247414084 0.069080972906403956 1.5000000000000002 3.5000000000000004 0.44993009213842711 8.5000000000000018 0.0027928686251697653 0.37803866744456566 0.37570355697713581 0.026715893196304231 0.50492697644218321 0.59718298621309129 0.72391280979446948 3.5000000000000004 0.066222143195827421
decision_type=2 2 2 2 2 2 2 2 2 2 2 2 2 2 2 2 2 2 2 2 2 2 2 2 2 2 2 2 2 2
left_child=3 2 5 8 -5 6 14 15 18 -10 11 17 -4 -7 -2 -6 -13 29 -1 20 -20 -22 -16 -24 25 -25 -27 -28 -29 -8
right_child=1 -3 12 4 7 13 10 -9 9 -11 -12 16 -14 -15 22 -17 -18 -19 19 -21 21 -23 23 24 -26 26 27 28 -30 -31
leaf_value=0.13590003827008368 0.057329853825516613 -0.10059004999110613 0.016616788076675378 0.11833571726206873 -0.034179398322123404 -0.078550915490433512 -0.024895782909625602 -0.11830707764025497 -0.060890629624899099 0.1420784562312305 0.20620950799023574 0.041771978857951003 -0.076730742160579471 0.09110427397252624 -0.11325712079037552 0.12310707205504418 -0.14126625167691706 0.11074719384921286 0.10220131690044294 0.13051635033429734 0.075316251700151354 -0.05615782787190593 0.11475105657877477 -0.11368226551339218 -0.11950706263103794 0.1452725760925489 -0.086984030788552449 -0.033727665239113469 0.065870056241538424 0.097007241906455599
leaf_weight=1147.4898133128881 75.00323361903429 458.29884462431073 21.080874517560005 46.533798381686211 9.9304139986634308 19.683576762676243 13.434891767799856 7.6577333137392989 10.673390895128252 13.355503559112547 8.0204168856143934 7.2270548865199071 60.825753878802061 6.1571062952280036 7.0322870016098014 10.671336226165293 5.8375430256128311 52.222466550767422 122.82178577780724 656.6488319337368 20.463695883750916 15.44260662794113 9.9682041108608228 6.3454371914267531 9.3113223388791067 8.5402231961488706 11.832271851599215 20.02691887319088 32.609679251909256 12.242551557719706
leaf_count=1177 220 7525 120 55 33 152 60 82 34 13 12 24 848 23 75 19 38 78 161 699 31 40 45 70 87 32 90 150 110 35
internal_value=0 -0.0462782 0.0179731 0.126933 0.0745381 0.0369227 0.0438575 0.00241821 0.128905 0.0519216 0.0784742 0.0672117 -0.0527052 -0.0381269 0.0248917 0.0472922 -0.0400134 0.0851944 0.129848 0.12133 0.0833285 0.0187718 0.00186677 0.0100747 -0.00169344 0.0121306 0.0230654 0.00687652 0.0279756 0.0332254
internal_weight=0 845.701 387.402 2061.69 74.7933 305.495 279.655 28.2595 1986.9 24.0289 98.9849 90.9645 81.9066 25.8407 180.67 20.6018 13.0646 77.8999 1962.87 815.377 158.728 35.9063 105.666 98.6341 88.6659 79.3545 73.0091 64.4689 52.6366 25.6774
internal_count=12138 9794 2269 2344 189 1301 1126 134 2155 47 247 235 968 175 879 52 62 173 2108 931 232 71 659 584 539 452 382 350 260 95
is_linear=0
shrinkage=0.1


Tree=11
num_leaves=31
num_cat=0
split_feature=3 0 3 5 9 8 4 2 1 10 1 7 7 7 1 10 5 2 1 9 9 9 7 0 1 0 5 1 2 9
split_gain=1550.74 267.245 43.0196 21.6034 42.3476 15.0802 15.225 21.796 13.9176 13.5537 12.4136 15.1832 12.6798 16.511 11.6401 10.3509 10.0355 9.53234 9.43158 9.51029 8.5454 8.33714 8.2979 8.16668 7.67102 12.9914 11.9674 7.6267 7.50748 7.35271
threshold=1.0000000180025095e-35 0.16717428762122702 1.5000000000000002 2.5000000000000004 0.15516320045462925 0.004306180961412223 4.5000000000000009 0.040264724310776955 0.54730273752012892 0.8865439778566333 0.2310185185185186 0.58524980618622646 0.16808516397152942 0.15061501235065791 0.41086956521739132 0.94511417735818615 15.500000000000002 0.025900900900900907 0.66805555555555562 0.17561625762671756 0.17561625762671756 0.20373044941451243 0.46962841352339274 0.035199761258411628 0.15046296296296299 0.019274903785773356 6.5000000000000009 0.99863888888888919 0.042376528314028321 0.11228227331271502
decision_type=2 2 2 2 2 2 2 2 2 2 2 2 2 2 2 2 2 2 2 2 2 2 2 2 2 2 2 2 2 2
left_child=3 2 8 17 5 -5 23 -8 14 -6 11 -4 13 20 15 24 -3 22 -10 29 -12 -21 -1 -7 26 -26 28 -25 -2 -20
right_child=1 16 10 4 9 6 7 -9 18 -11 12 -13 -14 -15 -16 -17 -18 -19 19 21 -22 -23 -24 27 25 -27 -28 -29 -30 -31
leaf_value=0.063116429997452289 0.020171319207399809 -0.10039461811834494 -0.11234804219708111 0.12484341782803142 -0.1367436075329182 0.12124495357592718 0.083166565424523511 -0.093838258783679615 -0.080474143609547549 0.035304911356305591 -0.11272784756522664 0.12406918714306872 -0.084459861551925752 0.25690379658817836 0.10121284800026396 0.079193017701890037 0.12426440202307597 0.12845132790462671 0.0041843365134250649 -0.11513613190357229 0.13895620421904717 0.098960964905923376 0.1150207069643541 0.089679801744914522 0.069718336013344762 -0.055602814444944242 0.098961631906045344 -0.014414360117682474 -0.11794357680731499 0.050773891730680899
leaf_weight=38.055062517523766 5.9023257642984452 417.70246700942516 4.1241632625460607 178.17120803147554 9.1261754631996173 60.492235273122787 18.629049926996235 11.10301437973976 10.177216365933416 9.1893943808972818 4.7587576881051046 7.9585333466529846 56.96084151044488 2.5753151550889015 40.32072951644659 38.910082787275314 1.9978620707988728 1432.2066279798746 71.313160713762045 8.6982448548078519 1.8827591910958288 2.2997293919324866 161.57752256095409 25.098861560225487 33.435676850378513 10.991083838045595 5.3317853808403006 9.78166216611862 11.811263948678969 64.523423582315445
leaf_count=61 30 7509 43 203 81 70 28 35 90 25 60 14 829 11 68 76 16 1572 385 90 11 19 193 51 87 56 23 25 111 266
internal_value=0 -0.044244 0.0162773 0.120929 0.0972403 0.106158 0.0795466 0.0170666 0.0333127 -0.0504224 -0.0498343 0.0433734 -0.0668522 0.041965 0.0554588 0.0381172 -0.0993252 0.125598 0.0126207 0.0190732 -0.0413796 -0.0703674 0.105126 0.0990245 0.0144294 0.0387142 -0.0323867 0.0604883 -0.0719225 0.0263147
internal_weight=0 801.675 381.975 1953.43 321.592 303.276 125.105 29.7321 303.715 18.3156 78.2604 12.0827 66.1777 9.21683 146.703 106.382 419.7 1631.84 157.012 146.835 6.64152 10.998 199.633 95.3728 67.4721 44.4268 23.0454 34.8805 17.7136 135.837
internal_count=12138 9794 2269 2344 518 412 209 63 1301 106 968 57 911 82 451 383 7525 1826 850 760 71 109 254 146 307 143 164 76 141 651
is_linear=0
shrinkage=0.1


Tree=12
num_leaves=31
num_cat=0
split_feature=3 0 3 5 9 7 8 10 9 7 0 5 0 0 9 8 7 8 6 2 2 1 10 10 10 5 9 1 8 1
split_gain=1342.91 242.26 35.9772 21.1077 36.5418 14.8906 13.6401 13.4682 11.7632 13.7601 11.1799 10.9738 10.5085 14.5461 10.1731 13.5655 9.78911 10.9392 9.74678 10.3461 9.27743 9.10663 9.09334 8.91366 10.9534 8.78233 8.74432 11.3677 8.6627 8.39536
threshold=1.0000000180025095e-35 0.16717428762122702 1.5000000000000002 2.5000000000000004 0.15121915726044169 0.70869378168880315 0.0075781954300794359 0.38132808663791634 0.16344260537137933 0.9140387593565743 0.030793650793650793 5.5000000000000009 0.061088588588588601 0.11656922547547548 0.15516320045462925 0.0020658755911563066 0.37570355697713581 0.026715893196304231 3.5000000000000004 0.025900900900900907 0.069080972906403956 0.91712962962962974 0.50492697644218321 0.59718298621309129 0.66681547619047621 15.500000000000002 0.070131285535242283 0.58320370370370378 0.04164777988638866 0.85485104669887291
decision_type=2 2 2 2 2 2 2 2 2 2 2 2 2 2 2 2 2 2 2 2 2 2 2 2 2 2 2 2 2 2
left_child=3 2 8 18 6 -6 -5 -8 9 12 -4 -10 16 -14 15 29 -2 21 19 -1 -17 22 -18 -24 -25 -3 27 -26 -9 -11
right_child=1 25 10 4 5 -7 7 28 11 14 -12 -13 13 -15 -16 20 17 -19 -20 -21 -22 -23 23 24 26 -27 -28 -29 -30 -31
leaf_value=0.099456025217775579 0.05161714037095079 -0.099243186601926534 0.014835406607768534 0.11622617352271879 -0.13124420435442471 0.042844442546884201 -0.042410654116802449 0.046576788979361697 -0.074661648170608982 0.098173956332152493 -0.071721173106711347 0.077925749597892877 -0.088199654206420702 0.12423772945470656 0.1712282286488036 0.034258834294476209 -0.11322665292147156 -0.12079266562131351 0.044023494188647511 0.12437871105699545 -0.13809724695619141 -0.12199579878388141 0.12713480003433189 -0.12215721466661594 0.031209989960628383 0.1028165967616185 0.10276190710732969 -0.13163550149675074 0.11016698964162824 0.029923429118209718
leaf_weight=190.41881766915321 84.427761927247047 382.11686486378312 20.679348081350327 191.213524132967 9.3781610652804392 10.319975331425665 9.5780206993222219 37.905091777443886 18.535891182720665 47.345782645046711 53.602079126983881 6.3203417584300032 16.769739050418142 3.9900772832334033 8.4223320931196195 7.333537280559538 4.5082934349775305 6.6191165000200263 16.51750835776329 1329.7536506056786 5.4394115656614304 4.6018703728914252 8.7724936455488187 5.0261454582214347 27.27789694070816 2.1632248386740676 12.983701348304747 5.0859191231429568 49.266081437468529 29.10073359310627
leaf_count=254 270 7509 120 234 89 25 30 72 152 67 848 23 163 36 12 24 54 61 31 1541 38 39 29 43 98 16 38 48 68 106
internal_value=0 -0.0422369 0.0147347 0.11564 0.0917313 -0.0400381 0.100745 0.0701482 0.0300444 0.0359434 -0.0476245 -0.0358623 0.0195517 -0.0473688 0.0661717 0.0562544 0.0282725 0.00194972 0.120427 0.121257 -0.0391397 0.0138526 0.0236737 0.0341086 0.0179083 -0.0981057 0.0334326 0.0056191 0.0825157 0.0721932
internal_weight=0 761.123 376.842 1844.35 307.661 19.6981 287.963 96.7492 302.561 277.705 74.2814 24.8562 180.063 20.7598 97.6418 89.2195 159.303 74.8754 1536.69 1520.17 12.7729 68.2563 63.6544 59.1462 50.3737 384.28 45.3475 32.3638 87.1712 76.4465
internal_count=12138 9794 2269 2344 518 114 404 170 1301 1126 968 175 879 199 247 235 680 410 1826 1795 62 349 310 256 227 7525 184 146 140 173
is_linear=0
shrinkage=0.1


Tree=13
num_leaves=31
num_cat=0
split_feature=3 0 3 5 9 0 7 6 1 7 7 4 0 8 1 5 0 0 6 2 2 6 1 8 7 7 4 2 7 8
split_gain=1167.13 219.517 29.8929 20.8083 34.3364 14.6017 19.4178 11.1049 12.4257 14.6302 15.9141 13.0193 11.291 11.6709 10.7314 13.1645 10.0504 17.1294 10.7168 9.79971 9.77395 10.2509 9.7163 9.01732 8.47383 8.41535 22.2752 8.26643 11.6781 9.2027
threshold=1.0000000180025095e-35 0.16717428762122702 1.5000000000000002 2.5000000000000004 0.16049507792124321 0.036364522417153995 0.55151738276820494 2.5000000000000004 0.85132850241545899 0.73507779760925007 0.43888053275130007 6.5000000000000009 0.050060230872319693 0.0012824334528680947 0.19863888888888889 1.5000000000000002 0.055218384502923983 0.054813185816935589 1.5000000000000002 0.074981259370314857 0.025900900900900907 3.5000000000000004 0.88657407407407418 0.083162448626448268 0.46962841352339274 0.92807106088993974 2.5000000000000004 0.14535166040100253 0.92807106088993974 0.0016758953287928206
decision_type=2 2 2 2 2 2 2 2 2 2 2 2 2 2 2 2 2 2 2 2 2 2 2 2 2 2 2 2 2 2
left_child=3 2 7 20 5 -5 23 8 9 10 19 -12 13 -11 15 -13 17 18 -4 -2 24 -22 -10 -7 -1 -3 -27 28 -9 -30
right_child=1 25 16 4 -6 6 -8 27 22 12 11 14 -14 -15 -16 -17 -18 -19 -20 -21 21 -23 -24 -25 -26 26 -28 -29 29 -31
leaf_value=0.050486971067482928 0.075122183670452716 -0.099391592855893413 0.03068123587145127 0.10561748357476647 -0.066330867253543452 -0.087073496326968869 0.091510832682223708 -0.096837484376744165 -0.12826101760026862 0.10108222181560289 -0.093493538739193097 -0.12374007737724924 0.17400609075232554 -0.0038285817748413943 0.13658666485277135 0.1133769444672669 -0.080603080520198045 0.23278340832004796 -0.086817447828196503 -0.030401091237698165 0.12000964777155475 0.040184465457860127 0.014768742322713475 0.053929906725189658 0.10484914742882408 -0.10612649123629847 0.23614937600861771 0.1022646190828187 -0.066254633957644457 0.094542221133480042
leaf_weight=35.693808689713478 51.423436619341373 342.93083763495088 15.913231179118158 224.71848148107529 13.972104720771311 11.834755577147009 36.008794829249382 17.634458862245083 4.9820524938404551 34.019483119249344 16.015134148299694 5.9951709508895892 12.726465102285145 15.405763342976568 6.2315750755369654 3.8418677598237991 37.384942248463631 2.7724572680890551 15.155224312096832 10.617846690118311 1244.7403332144022 16.297901540994644 101.75048462301493 7.3535123467445365 145.79587844014168 6.1974114738404733 2.7429118156433105 4.5181442238390437 6.3149935379624358 8.1563523113727552
leaf_count=61 133 7381 100 299 100 47 53 163 36 47 144 51 16 44 13 14 644 26 198 45 1541 31 511 19 193 120 24 38 28 18
internal_value=0 -0.0403151 0.0133675 0.110914 0.0866613 0.094298 0.0482141 0.0272096 0.0343935 0.0523564 0.0274934 -0.0296856 0.0900098 0.0683817 0.03391 -0.0311337 -0.0448638 -0.0053816 -0.0266347 0.0570628 0.115855 0.118978 0.00809241 -0.0330368 0.0941577 -0.0968946 -0.00111547 -0.0243804 -0.0422028 0.0243738
internal_weight=0 722.73 370.859 1736.42 293.888 279.916 55.1971 299.633 263.009 156.277 94.125 32.0837 62.1517 49.4252 16.0686 9.83704 71.2259 33.8409 31.0685 62.0413 1442.53 1261.04 106.733 19.1883 181.49 351.871 8.94032 36.6239 32.1058 14.4713
internal_count=12138 9794 2269 2344 518 418 119 1301 1054 507 400 222 107 91 78 65 968 324 298 178 1826 1572 547 66 254 7525 144 247 209 46
is_linear=0
shrinkage=0.1


Tree=14
num_leaves=31
num_cat=0
split_feature=3 0 3 5 1 10 2 9 7 0 1 9 1 6 2 6 10 7 8 10 9 8 7 8 9 2 4 0 0 1
split_gain=1017.71 199.11 27.0569 20.5934 29.5318 26.9264 13.4405 12.6064 11.8014 16.6539 12.2633 11.3944 11.2006 11.0831 9.98033 10.0234 9.73919 9.56301 9.39463 8.81956 15.9458 11.6522 10.7354 8.96254 8.72803 14.2094 10.9777 8.71975 9.69449 12.5487
threshold=1.0000000180025095e-35 0.16717428762122702 2.5000000000000004 2.5000000000000004 0.70543478260869585 0.39776477801529136 0.025900900900900907 0.15909107668100467 0.73507779760925007 0.061088588588588601 0.99925020128824493 0.15121915726044169 0.85132850241545899 2.5000000000000004 0.025900900900900907 3.5000000000000004 0.99069318250716754 0.64416368513955002 0.0064121627670434746 0.99483435792349739 0.11374029824390437 0.0017286429833874818 0.84284159816209803 0.00067737013764991301 0.01499877083407603 0.040264724310776955 2.5000000000000004 0.054813185816935589 0.037620614035087728 0.99887037037037052
decision_type=2 2 2 2 2 2 2 2 2 2 2 2 2 2 2 2 2 2 2 2 2 2 2 2 2 2 2 2 2 2
left_child=3 2 6 14 18 -6 -2 8 9 17 -11 12 13 -10 -1 -16 -7 27 -5 20 22 -22 -14 -21 -20 -26 -27 28 -8 -30
right_child=1 -3 -4 4 5 16 7 -9 11 10 -12 -13 19 -15 15 -17 -18 -19 24 23 21 -23 -24 -25 25 26 -28 -29 29 -31
leaf_value=0.089306433828421072 -0.1430143739499839 -0.095721663656229333 -0.092214496283568148 0.11453372472798702 -0.14436299813010353 0.065181797590402393 0.035354743378401103 -0.032828969671140282 0.08451064619265572 -0.088829342274007239 0.20167718047919014 0.17623174439971293 0.12109375843780922 -0.02529692793761229 0.11613300817418032 0.036659998728955506 -0.043706034822416528 -0.078279596840560711 0.10431821737536591 0.1219940593506629 -0.062082583559334936 0.11472327118070386 -0.11888640439331433 -0.01063425149758055 0.10590329451849063 0.029615349463741787 -0.14118373591445194 0.12579007933647821 -0.074277740320822308 0.14622813690402436
leaf_weight=172.70445568859577 5.0317345112562171 322.20450254157186 23.273374199867249 148.34187020361423 8.1623835861682874 53.860632229596376 103.72552864998579 37.737240225076675 63.9574592448771 21.198582962155346 1.5600294470787037 6.8296255655586711 2.1250622160732773 10.734402325004337 1161.9392457157373 16.089642599225044 9.6923332810401899 8.7037376314401609 31.353549212217331 10.987350415438415 5.9254441559314719 10.048817854374645 15.178856097161768 9.5011353828012926 12.996276140213014 9.973561458289625 6.043111413717269 8.8547549657523614 16.947039395570759 3.0444549135863772
leaf_count=254 29 7525 400 196 65 119 455 325 114 295 11 13 24 43 1541 31 29 79 42 32 36 29 145 47 17 29 21 49 136 7
internal_value=0 -0.0384175 0.0121174 0.106637 0.0819766 0.026616 0.0192154 0.0216372 0.028504 0.0104714 -0.0689161 0.0503683 0.0436766 0.0687296 0.111756 0.115048 0.0485755 0.0232602 0.100999 0.00887339 -0.0229057 0.0491394 -0.0894149 0.0604903 0.0677408 0.0282126 -0.0348274 0.0299266 0.0230654 -0.0406974
internal_weight=0 687.569 365.365 1631.16 280.424 71.7153 342.091 337.06 299.322 164.034 22.7586 135.288 128.459 74.6919 1350.73 1178.03 63.553 141.276 208.708 53.7667 33.2782 15.9743 17.3039 20.4885 60.3665 29.0129 16.0167 132.572 123.717 19.9915
internal_count=12138 9794 2269 2344 518 213 1869 1840 1515 1032 306 483 470 157 1826 1572 148 726 305 313 234 65 169 79 109 67 50 647 598 143
is_linear=0
shrinkage=0.1


Tree=15
num_leaves=31
num_cat=0
split_feature=3 0 3 5 9 0 5 0 2 7 4 5 2 2 0 9 7 0 1 9 7 9 9 9 1 8 2 7 9 7
split_gain=889.311 180.241 23.3448 20.4366 16.5673 12.741 17.9691 26.8668 11.8779 11.8559 13.5511 11.797 11.5428 10.4941 11.2342 10.303 9.79967 14.0773 9.66265 8.84576 10.789 9.41083 11.3684 15.0475 13.92 12.9331 10.6504 8.7983 21.881 8.09304
threshold=1.0000000180025095e-35 0.16717428762122702 2.5000000000000004 4.5000000000000009 0.035394200054254144 0.1286426275100688 1.5000000000000002 0.32383428168074907 0.025900900900900907 0.44993009213842711 4.5000000000000009 1.0000000180025095e-35 0.025900900900900907 0.087016369047619058 0.063468768247414084 0.15909107668100467 0.73507779760925007 0.061088588588588601 0.99925020128824493 0.15121915726044169 0.75559135016410883 0.045193578871223904 0.11374029824390437 0.11892891563061724 0.90231481481481501 0.0012824334528680947 0.059715865751334862 0.92807106088993974 0.071987916890888196 0.18042976450456333
decision_type=2 2 2 2 2 2 2 2 2 2 2 2 2 2 2 2 2 2 2 2 2 2 2 2 2 2 2 2 2 2
left_child=3 2 12 5 -5 8 -7 -8 9 10 -1 -12 -2 14 -6 16 17 29 -19 20 -18 -22 24 -24 25 -23 -25 -3 -29 -14
right_child=1 27 -4 4 13 6 7 -9 -10 -11 11 -13 15 -15 -16 -17 19 18 -20 -21 21 22 23 26 -26 -27 -28 28 -30 -31
leaf_value=0.085570673880663972 -0.13812307352716729 -0.097360267688328062 -0.089873977489775062 0.090178527356426813 -0.054528576720523941 0.10706946775535087 -0.16492685726129375 0.060713931955932103 0.11061378851447511 0.09746081092054068 0.051234549486999903 -0.10911421364783727 0.061438867075248871 -0.1223245736687846 0.096638947148493359 -0.030108763342152484 0.17743058900339237 -0.086190353805834216 0.15553442510429047 0.155782591400635 0.055331555320906715 0.11944417730355308 0.19635389420330504 -0.13447090124673219 -0.12031909035280344 -0.077489550775295457 0.057032277450071694 0.24290447740079349 -0.10602679513866441 0.0067509528276521917
leaf_weight=24.95000359416008 4.7057301774621001 287.10379353910685 21.579379886388779 37.064526826143265 9.5741744339466148 35.493707463145256 7.3082243502140072 18.985331013798714 1221.4926351010799 139.96284526586533 9.3295037597417849 9.0281519442796689 36.441259533166885 6.6361860260367385 10.104668095707892 37.068483095616102 5.4560763724148265 19.738790500909094 1.8049005493521679 6.9461702182888976 75.48265378922224 7.0160592943429965 5.4640309475362328 4.1162372492253771 12.709137249737976 6.355551190674305 9.8620551191270334 2.6678505241870862 5.5066003873944283 105.1149715743959
leaf_count=37 29 7381 400 55 33 51 31 40 1747 205 16 28 92 82 19 325 11 295 11 13 192 12 20 28 130 42 35 26 118 634
internal_value=0 -0.0365432 0.0109693 0.102695 0.0470987 0.105097 0.060654 -0.00200233 0.107052 0.0833128 0.0375888 -0.0276237 0.0174022 -0.0135789 0.0230927 0.0195962 0.0258102 0.00936829 -0.065939 0.0459114 0.0398765 0.0336743 -0.00223597 0.0556428 -0.0453826 0.0258412 0.000639658 -0.0944476 0.00785198 0.0208294
internal_weight=0 655.14 359.861 1529.93 63.3796 1466.55 61.7873 26.2936 1404.76 183.271 43.3077 18.3577 338.282 26.315 19.6788 333.576 296.508 163.1 21.5437 133.408 126.462 121.006 45.5231 19.4423 26.0807 13.3716 13.9783 295.278 8.17445 141.556
internal_count=12138 9794 2269 2344 189 2155 122 71 2033 286 81 44 1869 134 52 1840 1515 1032 306 483 470 459 267 83 184 54 63 7525 144 726
is_linear=0
shrinkage=0.1


Tree=16
num_leaves=31
num_cat=0
split_feature=3 0 5 1 10 3 2 2 6 8 8 1 10 6 1 1 9 9 2 7 2 7 10 7 8 8 3 9 9 5
split_gain=778.836 163.446 20.7378 26.7168 21.6401 20.1424 10.7328 9.95076 9.92381 11.2937 16.4972 11.8138 20.8068 9.79229 9.58893 12.1225 13.9587 14.4814 11.7764 10.6943 12.9874 10.5499 11.5695 10.315 9.64554 9.45129 9.3505 23.7937 51.0586 16.2102
threshold=1.0000000180025095e-35 0.16717428762122702 2.5000000000000004 0.70543478260869585 0.39776477801529136 2.5000000000000004 0.025900900900900907 0.025900900900900907 2.5000000000000004 0.030175533321829897 0.026114243019337523 0.9134661835748793 0.93742394372304416 3.5000000000000004 0.92765700483091795 0.99852430555555571 0.17561625762671756 0.13169963214010144 0.081361607142857159 0.73507779760925007 0.075784266409266429 0.33252332407607915 0.50492697644218321 0.13162942611654771 0.0020232172312840409 0.0064121627670434746 1.5000000000000002 0.081009281261253924 0.068274008082631885 8.5000000000000018
decision_type=2 2 2 2 2 2 2 2 2 2 2 2 2 2 2 2 2 2 2 2 2 2 2 2 2 2 2 2 2 2
left_child=2 5 6 25 -5 7 -1 -2 14 10 11 -10 -13 -8 19 -16 17 18 -17 20 21 -9 -23 -22 -19 -4 27 28 -3 -29
right_child=1 26 3 4 -6 -7 13 8 9 -11 -12 12 -14 -15 15 16 -18 24 -20 -21 23 22 -24 -25 -26 -27 -28 29 -30 -31
leaf_value=0.080188684558355122 -0.13390051277564993 -0.10422715048801362 0.10740559895747903 -0.14067808017572972 0.039328018289522863 -0.087478237243853743 0.10954502171269945 0.055075749693703185 -0.067570850238137331 -0.11420588548167952 0.24363457312938103 0.33394705225697685 -0.00067966510928160577 0.028998655273377433 -0.12055245199061677 -0.063136356170789901 -0.11042719508278805 0.0021632720735957488 0.082176479901578711 0.06345780324875025 0.08071704818597443 -0.11301620436504259 0.016002543118301026 -0.12104486327817032 0.11888802143543944 0.058061213529799274 -0.1000595101358963 -0.086245075855752917 0.74653390153456489 0.27498381982983855
leaf_weight=156.09840522706509 4.3852192535996428 1.8102886229753523 130.45074404031038 7.5086232535541049 60.416439957916737 20.033605121076107 1008.0561069101095 64.172683097422123 19.171480495482683 10.906103566288946 2.6205756030976763 2.2261693701148024 11.240557752549647 15.32301491498947 8.2059926986694318 21.251892987638715 8.6509073153138143 11.45927779003978 7.5613868273794642 83.605453241616488 3.3181536868214598 8.4817526005208475 38.495197996497154 10.721011351794003 18.522612441331148 55.259090825915337 238.5601474866271 27.718061033636335 1.1558331698179243 1.3005857802927483
leaf_count=254 29 49 196 65 148 400 1541 182 153 156 12 24 75 31 90 180 124 51 50 219 14 107 217 122 64 109 6667 763 16 30
internal_value=0 -0.0346978 0.0990352 0.0730945 0.0194296 0.00992275 0.104613 0.0157476 0.0177325 -0.0252731 0.00223526 -0.0171471 0.0546371 0.108339 0.0247122 -0.0057902 0.00817263 0.025623 -0.0250023 0.0357641 0.0172692 0.0287163 -0.00729197 -0.0733585 0.074275 0.0927229 -0.0932523 -0.0424802 0.227296 -0.0700552
internal_weight=0 625.575 1433.11 253.635 67.9251 355.03 1179.48 334.996 330.611 46.1649 35.2588 32.6382 13.4667 1023.38 284.446 75.6521 67.4461 58.7952 28.8133 208.794 125.189 111.15 46.977 14.0392 29.9819 185.71 270.545 31.9848 2.96612 29.0186
internal_count=12138 9794 2344 518 213 2269 1826 1869 1840 420 264 252 99 1572 1420 559 469 345 230 861 642 506 324 136 115 305 7525 858 65 793
is_linear=0
shrinkage=0.1


Tree=17
num_leaves=31
num_cat=0
split_feature=3 0 5 1 10 3 2 6 8 3 5 6 2 0 7 2 4 5 6 8 8 1 10 1 10 2 7 10 7 7
split_gain=683.608 147.936 20.6565 24.266 18.5665 17.3596 11.0843 9.60178 9.31635 9.22946 17.5571 44.5723 32.1469 61.0638 8.84278 8.60418 8.37814 8.35631 8.27386 10.2194 11.8026 9.48266 16.3775 8.36559 11.3717 10.3199 7.95255 7.88787 7.67024 16.2295
threshold=1.0000000180025095e-35 0.16717428762122702 2.5000000000000004 0.70543478260869585 0.39776477801529136 2.5000000000000004 0.025900900900900907 3.5000000000000004 0.0064121627670434746 1.5000000000000002 1.5000000000000002 1.5000000000000002 0.76546052631578954 0.37417117334190053 0.46962841352339274 0.025900900900900907 4.5000000000000009 15.500000000000002 2.5000000000000004 0.030175533321829897 0.026114243019337523 0.9134661835748793 0.91546560371171803 0.85132850241545899 0.91154249474264148 0.034540486453201978 0.95712680998431343 0.99069318250716754 0.8528871182644141 0.19174878179118401
decision_type=2 2 2 2 2 2 2 2 2 2 2 2 2 2 2 2 2 2 2 2 2 2 2 2 2 2 2 2 2 2
left_child=2 5 6 8 -5 15 14 -8 -4 10 -3 12 13 -12 -1 -2 -10 -11 23 20 21 -20 -23 24 -17 -25 -7 -6 29 -27
right_child=1 9 3 4 27 26 7 -9 16 17 11 -13 -14 -15 -16 18 -18 -19 19 -21 -22 22 -24 25 -26 28 -28 -29 -30 -31
leaf_value=0.02875443569920624 -0.1302280272426673 -0.10391897360770164 0.10390741276446538 -0.13630866368231565 0.051513026949674516 -0.10593190888604967 0.10660111587891248 0.026386769228820592 0.08013964170269211 -0.10119337963660396 -0.1042622774552749 -0.10414792426620911 -0.10366610416655123 0.75381552296605714 0.08856014344451961 0.012005339160729963 -0.0055985252928583418 0.10170103532587907 -0.06250714494141571 -0.11296450368290104 0.19279375526628606 0.27569958021127705 -0.0043760304554935408 0.12554465839531279 0.065497856447675903 0.03520277402052991 0.11919637778979975 -0.048349442007555435 0.019136577550671788 -0.078691188523522304
leaf_weight=31.320255503058434 4.0740096122026435 18.246647994965318 121.80662673711777 7.0005816072225562 50.346502434462309 16.894469335675243 936.02492418885231 15.164470449090002 37.236956596374512 215.41562671586871 1.3039559535682186 7.6409487128257751 1.5495615005493162 2.2784866988658905 117.37465988099575 83.369101904332638 16.424237590283155 2.0492096319794646 18.678782172501087 9.9711606726050359 2.959012407809495 2.5460061468183985 11.602177545428274 6.475059710443019 75.941307708621025 20.991272646933794 1.7297335378825653 9.3838439099490625 63.44608336687088 30.970707342028618
leaf_count=61 29 535 196 65 119 387 1541 31 71 6651 36 216 46 25 193 401 38 16 153 156 12 21 78 17 173 103 13 29 350 376
internal_value=0 -0.0330091 0.0955314 0.0690936 0.0177662 0.00891582 0.101353 0.105322 0.0886135 -0.0920026 -0.0409739 0.0489456 0.276884 0.441488 0.075963 0.014201 0.0538975 -0.0992815 0.0160007 -0.0234347 0.00151129 -0.0157308 0.0460244 0.0224178 0.0375046 0.00269832 -0.085023 0.0358243 -0.00419407 -0.032681
internal_weight=0 598.133 1342.08 242.199 66.7309 349.649 1099.88 951.189 175.468 248.484 31.0196 12.773 5.132 3.58244 148.695 331.025 53.6612 217.465 326.951 45.7571 35.786 32.827 14.1482 281.194 159.31 121.883 18.6242 59.7303 115.408 51.962
internal_count=12138 9794 2344 518 213 2269 1826 1572 305 7525 858 323 107 61 254 1869 109 6667 1840 420 264 252 99 1420 574 846 400 148 829 479
is_linear=0
shrinkage=0.1


Tree=18
num_leaves=31
num_cat=0
split_feature=3 0 5 9 3 7 9 8 4 7 6 9 1 4 7 3 5 6 9 7 2 9 9 6 5 5 9 7 1 2
split_gain=601.161 134.626 20.4776 22.5059 15.1458 13.5435 18.032 17.5097 11.3831 15.785 10.6106 10.4592 11.5848 9.05237 8.98684 8.80287 14.678 28.3473 18.4406 22.0822 8.39647 7.58521 7.66054 9.39725 7.48725 7.27041 7.17582 6.99293 6.59793 5.58564
threshold=1.0000000180025095e-35 0.16717428762122702 2.5000000000000004 0.16049507792124321 2.5000000000000004 0.85716295258829689 0.012195067570024464 0.031727054902309482 3.5000000000000004 0.56650626536142334 3.5000000000000004 0.035394200054254144 0.91018518518518532 8.5000000000000018 0.35290320469830411 1.5000000000000002 1.5000000000000002 1.5000000000000002 0.2383464850411193 0.21205399628587451 0.034540486453201978 0.15909107668100467 0.15516320045462925 3.5000000000000004 15.500000000000002 4.5000000000000009 0.02499420231975889 0.95712680998431343 0.99887037037037052 0.2688344594594595
decision_type=2 2 2 2 2 2 2 2 2 2 2 2 2 2 2 2 2 2 2 2 2 2 2 2 2 2 2 2 2 2
left_child=2 4 8 5 21 6 20 11 10 13 -1 26 -13 -10 -15 16 -3 18 19 -18 -4 22 23 29 -17 -9 -8 -6 -5 -2
right_child=1 15 3 28 27 -7 7 25 9 -11 -12 12 -14 14 -16 24 17 -19 -20 -21 -22 -23 -24 -25 -26 -27 -28 -29 -30 -31
leaf_value=0.10891413757449531 0.016764507746575816 -0.10353599854902391 0.017103003696353421 -0.13953860845726709 -0.10538108295108464 0.10950806234919482 -0.039915966657648717 0.090714845137451067 0.069452083709194798 0.097604472967982261 0.014566821913993382 -0.19358787780435993 -0.020757648294195588 -0.061984738381339444 0.054984209489776142 -0.10063066769976828 0.62960986450055512 -0.10374223505673658 -0.1047243656613514 0.15330254709510588 0.10644728956435257 -0.03028735564848797 0.13158910799326362 -0.10934549345498923 0.086819981858360817 -0.0068286753280347714 0.083104445358582066 0.10351142023224623 0.0057695406122146697 0.13539417626019012
leaf_weight=594.76562097668648 276.59968061745167 16.568207798525695 12.701190844178198 6.1026749275624734 15.362579915672542 68.849782213568687 9.653823524713518 30.57933521270752 89.138863161206245 302.21021948009729 12.163933753967283 6.3975221067667034 9.8493015840649587 11.826677948236467 14.773818679153917 195.95119585469365 1.3390734512358884 6.9394746366888285 1.6315956488251684 3.5638056434690952 61.215331196784973 36.338427145034075 5.8348711133003226 5.8728740625083438 2.1542553082108489 10.18667223677039 9.3181810677051526 1.7891991771757592 6.4039486721158028 4.0268282741308203
leaf_count=1026 1414 535 29 73 387 109 25 48 175 536 26 28 28 34 29 6651 17 216 45 45 99 327 19 99 16 37 15 13 27 10
internal_value=0 -0.0313166 0.0922127 0.0653339 0.0080202 0.0727932 0.05593 0.0217221 0.0982777 0.0855778 0.107023 -0.0299241 -0.0888131 0.0541746 0.00297939 -0.090943 -0.0405016 0.0370084 0.186483 0.283392 0.0910951 0.0128009 0.018157 0.0158468 -0.0985923 0.0663405 0.020506 -0.0835903 -0.0651344 0.0184668
internal_weight=0 573.972 1256.14 231.258 345.824 218.751 149.901 75.9848 1024.88 417.95 606.93 35.2188 16.2468 115.739 26.6005 228.148 30.0422 13.4739 6.53447 4.90288 73.9165 328.673 292.334 286.499 198.105 40.766 18.972 17.1518 12.5066 280.627
internal_count=12138 9794 2344 518 2269 418 309 181 1826 774 1052 96 56 238 63 7525 858 323 107 62 128 1869 1542 1523 6667 85 40 400 100 1424
is_linear=0
shrinkage=0.1


Tree=19
num_leaves=31
num_cat=0
split_feature=3 0 5 0 7 3 2 2 4 1 6 3 2 6 7 9 5 7 4 7 1 2 7 7 5 0 7 0 9 0
split_gain=529.127 122.513 19.7484 21.0189 15.6329 13.2263 12.2853 12.2268 10.6227 9.49781 9.30874 8.61143 13.1274 26.941 11.9767 20.1786 8.44318 8.21564 7.75644 9.78193 7.87439 7.41939 7.40225 6.86024 6.78056 6.6083 13.6409 12.7366 15.5423 15.074
threshold=1.0000000180025095e-35 0.16717428762122702 2.5000000000000004 0.036364522417153995 0.55151738276820494 2.5000000000000004 0.025900900900900907 0.064470725163733936 10.500000000000002 0.88657407407407418 3.5000000000000004 1.5000000000000002 0.75018740629685177 1.5000000000000002 0.25306494883377201 0.081009281261253924 3.5000000000000004 0.46962841352339274 3.5000000000000004 0.79584377623784885 0.11155555555555556 0.025900900900900907 0.13162942611654771 0.14731391293891297 15.500000000000002 0.037620614035087728 0.8528871182644141 0.050060230872319693 0.14525120984430864 0.055218384502923983
decision_type=2 2 2 2 2 2 2 2 2 2 2 2 2 2 2 2 2 2 2 2 2 2 2 2 2 2 2 2 2 2
left_child=2 5 6 8 9 21 17 -6 22 -5 18 12 13 14 -3 -16 -11 -1 -8 20 -20 -2 -4 -18 -13 -23 27 -27 29 -29
right_child=1 11 3 4 7 -7 10 -9 -10 16 -12 24 -14 -15 15 -17 23 -19 19 -21 -22 25 -24 -25 -26 26 -28 28 -30 -31
leaf_value=0.020817975334134362 -0.12732435492765334 0.38189535016276532 0.016988687141837391 -0.17484696245484097 -0.045207169862295886 -0.08214823017506373 0.10865481798550783 0.085515164210466413 -0.0052336598212839912 0.046964542132171189 0.021339617355637167 -0.10007896283399886 -0.10310295803000243 -0.10368653477623975 0.31072832127276911 -0.10641782918599987 0.039268486513178262 0.080459139289172033 0.099335531915302727 0.1086527289871982 0.05381908402525927 0.02749284459318023 0.095300445916328802 -0.16151139064677877 0.074827777100663045 -0.10521933804635995 0.024120802266258057 0.11188992911058976 -0.11139695533049006 -0.020433214160575398
leaf_weight=29.719836175441742 3.8043505921959868 1.9876594785600916 13.253788504749535 5.1671675108373192 9.7635613381862623 15.80173991806805 517.91400278359652 26.781161569058895 13.222372725605963 8.8738504424691218 14.814502924680708 178.23228518851101 15.24431745149195 7.1080940347164869 2.1786080747842789 2.4792764559388161 2.5268304515629998 103.64061397314072 62.459649540483952 129.21337991952896 97.091253951191902 161.37651916965842 135.14454279839993 5.2117599155753851 2.2443317323923102 18.602768465876579 92.874534487724304 12.463995940983294 11.480414524674414 27.83553122356534
leaf_count=61 29 14 34 43 27 400 967 53 34 22 31 6651 546 235 10 53 17 193 118 239 217 609 239 49 16 195 455 55 175 351
internal_value=0 -0.0294771 0.0890975 0.0620831 0.0106229 0.00721592 0.0953201 0.0505904 0.0806536 -0.05644 0.0998903 -0.0897766 -0.0391943 0.0316411 0.176388 0.0886918 -0.0196105 0.0671679 0.101333 0.0882007 0.0716375 0.0115154 0.0883062 -0.0959521 -0.0979039 0.0131424 -0.00104265 -0.0342474 -0.00874966 0.0204922
internal_weight=0 553.714 1174.8 219.945 58.3243 344.24 954.853 36.5447 161.621 21.7796 821.493 209.475 28.998 13.7536 6.64554 4.65788 16.6124 133.36 806.678 288.764 159.551 328.438 148.398 7.73859 180.477 324.634 163.257 70.3827 51.7799 40.2995
internal_count=12138 9794 2344 518 211 2269 1826 80 307 131 1572 7525 858 312 77 63 88 254 1541 574 335 1869 273 66 6667 1840 1231 776 581 406
is_linear=0
shrinkage=0.1


Tree=20
num_leaves=31
num_cat=0
split_feature=3 0 5 9 10 2 3 7 8 6 2 3 2 6 0 2 4 7 1 7 1 2 4 1 1 5 1 5 4 6
split_gain=465.248 111.378 19.379 19.2547 19.6109 12.4661 11.3946 9.60069 10.1661 9.10146 8.65926 8.27325 11.6157 20.5777 15.1899 8.17539 7.99995 9.82628 7.61881 7.57498 6.9531 6.51058 13.1363 6.33261 7.13543 7.41691 6.9415 6.19471 5.83897 5.57876
threshold=1.0000000180025095e-35 0.16717428762122702 2.5000000000000004 0.014129849031294361 0.38132808663791634 0.025900900900900907 2.5000000000000004 0.85716295258829689 0.011102072809410108 3.5000000000000004 0.034540486453201978 1.5000000000000002 0.75018740629685177 1.5000000000000002 0.37417117334190053 0.056498933143669994 3.5000000000000004 0.79584377623784885 0.11155555555555556 0.46962841352339274 0.13605555555555557 0.040264724310776955 4.5000000000000009 0.2310185185185186 0.41086956521739132 1.0000000180025095e-35 0.19455555555555556 15.500000000000002 4.5000000000000009 3.5000000000000004
decision_type=2 2 2 2 2 2 2 2 2 2 2 2 2 2 2 2 2 2 2 2 2 2 2 2 2 2 2 2 2 2
left_child=2 6 5 10 15 19 29 8 -6 16 -4 12 13 14 -3 -5 -7 18 -18 28 -8 -10 -23 26 -25 -26 -20 -13 -1 -2
right_child=1 11 3 4 7 9 20 -9 21 -11 -12 27 -14 -15 -16 -17 17 -19 23 -21 -22 22 -24 24 25 -27 -28 -29 -30 -31
leaf_value=0.058164281992093871 0.012437088397561885 -0.1053924334453277 0.019155550042525386 0.012345725060922625 -0.082690068847474749 0.10663488377088659 0.10922312965950287 0.093004684390643189 0.087390596410074378 0.019372766831399626 0.10070972834625441 -0.099532528997447578 -0.10280046492723097 -0.10332912323740712 0.22543444225825673 -0.15158398580163202 0.096655607757379067 0.10659629328675856 0.04400297907841396 0.076868116567857206 -0.10445675980596084 0.04160055222680592 -0.113766853320517 0.11442562692735081 0.09191910058340802 0.0044693346318015956 -0.059145457165600483 0.064962441455786696 -0.031746590659153189 -0.071930857793700217
leaf_weight=16.568809479475025 318.76648718118668 1.8594876304268853 15.220562249422072 4.9863833226263505 7.9666477590799323 477.05180118978024 1.724372811615466 28.258847057819366 18.086602635681629 14.693371579051016 90.022299915552139 162.11219826899469 13.832148639485238 6.4527828339487314 5.4722966514527798 7.8027921877801418 58.003002062439919 119.05749446153641 22.636633984744552 97.934151865541935 13.029028646647928 31.085556844249368 6.5968098267912856 22.283154606819153 17.540941640734673 21.692428454756737 9.1659785881638509 2.3221638202667227 12.805048197507857 8.0351489689201099
leaf_count=30 1746 47 36 15 26 967 9 52 32 31 167 6651 546 235 30 73 118 239 54 193 391 91 26 41 35 58 29 16 31 123
internal_value=0 -0.0277765 0.0860239 0.058703 0.0283585 0.0924754 0.00648189 0.0444888 0.022978 0.097314 0.0889151 -0.0887036 -0.0380582 0.0269075 0.14153 -0.0876693 0.0988462 0.0851041 0.0681945 0.063509 -0.0794819 0.0380727 0.0144014 0.0505043 0.0692344 0.0435675 0.0142741 -0.0972095 0.0189691 0.0103627
internal_weight=0 533.606 1099.46 210.027 104.784 889.433 341.555 91.9945 63.7356 762.125 105.243 192.051 27.6167 13.7846 7.33178 12.7892 747.431 270.38 151.322 127.308 14.7534 55.769 37.6824 93.3191 61.5165 39.2334 31.8026 164.434 29.3739 326.802
internal_count=12138 9794 2344 518 315 1826 2269 227 175 1572 203 7525 858 312 77 88 1541 574 335 254 400 149 117 217 134 93 83 6667 61 1869
is_linear=0
shrinkage=0.1


Tree=21
num_leaves=31
num_cat=0
split_feature=3 0 5 1 2 10 3 8 6 3 2 0 8 9 7 4 7 1 4 4 9 8 2 1 2 7 1 1 1 5
split_gain=409.278 101.326 18.8489 18.2511 12.5848 12.4276 9.97251 9.94608 8.88626 8.35943 15.2117 44.914 15.1766 15.5123 11.7598 8.24136 9.84608 7.32974 7.25795 7.12262 7.57523 6.74856 16.2028 7.78159 6.43885 6.31086 5.78373 5.7072 6.92983 6.72325
threshold=1.0000000180025095e-35 0.16717428762122702 2.5000000000000004 0.70543478260869585 0.025900900900900907 0.39776477801529136 2.5000000000000004 0.0064121627670434746 3.5000000000000004 2.5000000000000004 0.74878406954887233 0.71534580084470445 0.26240855851584705 0.081009281261253924 0.74683383911637147 3.5000000000000004 0.79584377623784885 0.11155555555555556 10.500000000000002 4.5000000000000009 0.015857820811922985 0.074934965215041976 0.063527590090090111 0.96642512077294696 0.025900900900900907 0.95712680998431343 0.99852430555555571 0.2310185185185186 0.41086956521739132 1.0000000180025095e-35
decision_type=2 2 2 2 2 2 2 2 2 2 2 2 2 2 2 2 2 2 2 2 2 2 2 2 2 2 2 2 2 2
left_child=2 6 4 7 18 -5 24 -4 15 10 11 12 13 14 -3 -6 17 -17 -1 20 -9 22 23 -7 -2 -8 -24 -19 -29 -30
right_child=1 9 3 5 8 21 25 19 -10 -11 -12 -13 -14 -15 -16 16 -18 27 -20 -21 -22 -23 26 -25 -26 -27 -28 28 29 -31
leaf_value=0.068204613598890698 -0.12472996777896413 -0.10300079039320292 0.093838385706530303 -0.12952858707492332 0.10474416560578158 -0.01770737306266541 -0.10419344854117388 0.1066316523358672 0.017575646741743341 -0.10237778250736168 -0.10245459358435022 0.52739050341258531 0.34278007476540873 -0.10415073490251825 0.17510646997066404 0.09405122383026053 0.10467066624210711 0.013071078544459935 -0.012779908525435613 -0.019201870904561699 0.0053698474161210652 0.08852986466318917 0.00069422924802976099 -0.15786639695963867 0.010775795863080063 0.099664328557233894 0.097614696715170896 0.11286611125542066 0.088991368897847589 0.0040364387525600306
leaf_weight=109.32586777955294 3.5450547225773326 2.3355918731540539 94.59173471480608 5.8045485792681566 439.04917278885841 10.451367460191252 11.857825590297578 17.881780579686168 14.582311019301413 120.59744207561016 30.739782281219959 1.5315451063215721 1.0338970627635706 15.488165006041525 4.3565470483154058 53.862705416977406 109.60858663916588 31.471269443631172 12.312861658632754 15.09610905498266 12.588306667283176 12.609255736693738 10.797280237078667 6.3788641542196265 323.70289966650307 1.7416042946279038 14.327056627720594 20.426905184984207 16.367267809808254 21.620953507721424
leaf_count=223 29 95 196 65 967 28 387 31 31 5419 1363 22 3 589 34 118 239 83 31 38 40 30 38 24 1840 13 28 41 35 58
internal_value=0 -0.0260007 0.0830603 0.0555499 0.0897178 0.00958106 0.00582093 0.0753495 0.0948296 -0.0875986 -0.0554761 0.00288169 -0.0317225 -0.0491793 0.0780456 0.0964566 0.0820948 0.0648807 0.060007 0.0369679 0.0647967 0.0243797 0.00509962 -0.0708294 0.00930787 -0.0780865 0.0559628 0.0474008 0.065896 0.0406394
internal_weight=0 516.93 1029.15 200.526 828.628 60.3684 340.847 140.158 706.989 176.083 55.4855 24.7457 23.2142 22.1803 6.69214 692.407 253.358 143.749 121.639 45.5662 30.4701 54.5638 41.9546 16.8302 327.248 13.5994 25.1243 89.8864 58.4151 37.9882
internal_count=12138 9794 2344 518 1826 213 2269 305 1572 7525 2106 743 721 718 129 1541 574 335 254 109 71 148 118 52 1869 400 66 217 134 93
is_linear=0
shrinkage=0.1


Tree=22
num_leaves=31
num_cat=0
split_feature=3 0 5 9 2 7 9 8 3 6 4 7 3 2 9 6 10 7 1 7 1 10 5 1 9 8 7 8 2 7
split_gain=360.053 92.4273 18.3002 17.3598 12.7473 12.4519 13.9507 11.0624 8.73298 8.65833 8.49214 9.85896 8.13002 13.893 26.9924 17.791 7.7646 7.51274 8.86374 7.1404 7.03666 6.55003 6.37528 5.83502 5.38742 7.9283 11.112 12.6539 7.04063 5.53004
threshold=1.0000000180025095e-35 0.16717428762122702 2.5000000000000004 0.16049507792124321 0.025900900900900907 0.85716295258829689 0.010194986636665676 0.031727054902309482 2.5000000000000004 3.5000000000000004 3.5000000000000004 0.79584377623784885 2.5000000000000004 0.74878406954887233 0.29574959988029947 1.5000000000000002 0.97527656715764599 0.2898988491313354 0.35305958132045095 0.46962841352339274 0.11155555555555556 0.97220125174391236 4.5000000000000009 0.13605555555555557 0.16344260537137933 0.0034405495920959636 0.8528871182644141 0.16768238462425003 0.04910312097812098 0.73507779760925007
decision_type=2 2 2 2 2 2 2 2 2 2 2 2 2 2 2 2 2 2 2 2 2 2 2 2 2 2 2 2 2 2
left_child=2 8 4 5 19 6 -4 17 24 10 -6 20 13 14 15 16 21 -8 -19 -1 -12 -3 -9 -10 29 28 27 -27 -26 -2
right_child=1 12 3 -5 9 -7 7 22 23 -11 11 -13 -14 -15 -16 -17 -18 18 -20 -21 -22 -23 -24 -25 25 26 -28 -29 -30 -31
leaf_value=0.012577586029888788 9.5764053214010689e-06 0.06307167906226066 0.082297490139515234 -0.067527838474499821 0.10295440926902673 0.10063586901288307 -0.098325101033139087 0.080014422004575078 0.095178485356565146 0.015935244553032871 0.091496736105213763 0.10284706179070154 -0.10214700494620815 -0.10221657692224331 0.62245257647759511 -0.1026379236161839 -0.10405774718195016 0.060941952832445738 -0.050727862926754221 0.07045678329957146 0.04439982473275611 0.25725795268613333 -0.014915242426385342 -0.10372459053168133 0.077398978131111323 -0.1108162251282481 0.10553569637137335 0.21907051606015779 -0.12075403286778069 0.027375639425745859
leaf_weight=28.078878656029701 162.98299382254481 7.2362752966582828 52.883119098842144 11.341759893111883 403.82322764396667 53.219230532646179 9.7233130522072297 26.552451506257057 1.7072148881852616 14.480690866708754 50.028570309281349 100.84711366891861 109.35505675151944 27.875974267721176 0.68012438528239627 11.871219854801891 2.0688200015574685 13.816252626478674 14.639442602172492 88.478101797401905 86.701993331313133 2.2856925800442696 9.6439895909279567 10.838078798726199 2.1323723830282715 7.5862389393150824 7.3670433498919001 1.3732542246580122 11.2708244882524 135.01088586822152
leaf_count=61 1063 108 115 100 967 109 36 49 9 31 118 239 5419 1363 21 531 79 27 45 193 217 4 37 391 11 126 34 4 126 505
internal_value=0 -0.0243362 0.0801218 0.0524768 0.0869869 0.0600183 0.0430321 0.0151132 0.00522404 0.0924023 0.0941287 0.0791271 -0.0866664 -0.0541223 0.0014103 -0.0165927 0.0715344 -0.0224386 0.00349181 0.0565135 0.0616322 0.109685 0.0547219 -0.076657 0.00835846 -0.032234 0.0145559 -0.0602533 -0.089229 0.0124082
internal_weight=0 501.642 964.258 191.82 772.439 180.478 127.259 74.3754 340.269 655.882 641.401 237.578 161.373 52.0181 24.1421 23.462 11.5908 38.179 28.4557 116.557 136.731 9.52197 36.1964 12.5453 327.724 29.7297 16.3265 8.95949 13.4032 297.994
internal_count=12138 9794 2344 518 1826 418 309 194 2269 1572 1541 574 7525 2106 743 722 191 108 72 254 335 112 86 400 1869 301 164 130 137 1568
is_linear=0
shrinkage=0.1


Tree=23
num_leaves=31
num_cat=0
split_feature=3 0 7 4 6 9 7 8 9 8 2 10 0 1 7 0 5 3 2 9 6 3 8 1 1 1 1 7 10 1
split_gain=316.678 83.9318 18.4376 23.6371 21.5763 19.6291 18.8727 20.1218 17.5391 12.983 10.6177 8.65461 8.62277 15.5092 11.6531 8.34702 8.33052 8.01315 12.7994 24.9656 15.6135 7.78003 7.20572 14.932 7.83682 6.81169 6.37861 8.76645 6.16635 5.88087
threshold=1.0000000180025095e-35 0.16717428762122702 0.91006810197149945 8.5000000000000018 3.5000000000000004 0.13302815595908404 0.44513514267735993 0.0024399393090961262 0.11374029824390437 0.030948050109252851 0.050111607142857152 0.94069260741937544 0.061088588588588601 0.92385265700483099 0.48835594648037367 0.003809494801819364 2.5000000000000004 2.5000000000000004 0.74878406954887233 0.33776840728799834 1.5000000000000002 1.5000000000000002 0.18632997261657516 0.99925020128824493 0.2310185185185186 0.093629227053140113 0.11064814814814818 0.13469341835339677 0.97527656715764599 0.8836956521739131
decision_type=2 2 2 2 2 2 2 2 2 2 2 2 2 2 2 2 2 2 2 2 2 2 2 2 2 2 2 2 2 2
left_child=2 21 3 4 8 -6 7 -5 10 -9 26 -8 -10 14 -14 -13 -15 18 19 20 28 -2 23 24 -23 -12 -1 -28 -3 -29
right_child=1 17 -4 6 5 -7 11 9 12 -11 25 15 13 16 -16 -17 -18 -19 -20 -21 -22 22 -24 -25 -26 -27 27 29 -30 -31
leaf_value=0.090525849084670817 0.011298747268102158 0.093924198349091478 0.10370074207439051 0.032489229749193785 -0.17989260033358637 0.073683900069222305 0.088842291586246486 -0.21743097478824722 0.058322885484302533 -0.015501151079798901 -0.00061411716748950725 0.06474694150822434 -0.26132642373987869 0.092181945113210428 -0.021967848337370824 -0.084492036397678535 -0.047558180632420816 -0.10193903577995922 -0.10200203992464439 0.58124169549555127 -0.10245849392592275 0.029586318071072284 0.18998492134242845 0.33059551679951849 -0.064552768744262246 0.10092374937041429 -0.079126493658669875 0.066814258195520643 -0.10367389935221441 -0.018904232483342616
leaf_weight=100.61773926764727 284.05923708714545 9.9145592674613034 204.23947706073523 14.384920194745066 6.2416357547044736 5.9749138429760933 28.179584823548794 8.0948706939816457 44.18693258613348 5.2483597844839087 6.7757721021771422 8.0103469491004926 3.6399210728704947 11.010332860052587 4.6100316233932972 7.0427182912826529 6.9646081076934925 99.140137637034059 25.273575058206916 0.71733780577778716 11.188613923266528 11.334205109626053 1.448129242286085 1.0873696766793717 40.23300820030272 265.1240861415863 4.4842811003327361 160.40060032904148 1.8785237204283483 8.4240801185369474
leaf_count=248 1301 113 506 32 25 23 62 35 110 14 21 18 44 28 23 25 41 5419 1363 9 542 57 5 6 900 655 14 397 79 23
internal_value=0 -0.022816 0.0772676 0.0695487 0.0757261 -0.0558725 0.0148399 -0.0495553 0.0783349 -0.138005 0.0843943 0.0561412 0.0313635 -0.0140611 -0.127574 -0.00507592 0.0380379 -0.0855913 -0.052497 0.000297112 -0.0178362 0.00467912 -0.0300764 -0.0361286 -0.0438615 0.0983934 0.0704987 0.0588716 0.0624487 0.062537
internal_weight=0 486.275 903.655 699.416 628.455 12.2165 70.9608 27.7282 616.238 13.3432 545.827 43.2327 70.4118 26.2249 8.24995 15.0531 17.9749 148.113 48.9726 23.699 22.9817 338.162 54.1027 52.6546 51.5672 271.9 273.927 173.309 11.7931 168.825
internal_count=12138 9794 2344 1838 1652 48 186 81 1604 49 1358 105 246 136 67 43 69 7525 2106 743 734 2269 968 963 957 676 682 434 192 420
is_linear=0
shrinkage=0.1


Tree=24
num_leaves=31
num_cat=0
split_feature=3 3 2 7 4 6 5 9 7 8 0 2 9 2 9 1 10 8 5 8 10 5 7 0 1 7 7 7 0 10
split_gain=278.315 76.9065 25.1507 18.2582 21.6461 18.8631 16.8999 16.2029 15.6418 15.2891 12.5126 10.5683 10.4317 8.13771 9.76125 9.45183 7.80239 8.37326 7.67456 9.57211 7.40205 6.52626 6.33631 7.72289 6.24011 7.36582 5.91501 9.50428 17.3022 15.0996
threshold=1.0000000180025095e-35 2.5000000000000004 0.74878406954887233 0.91006810197149945 8.5000000000000018 3.5000000000000004 1.5000000000000002 0.11374029824390437 0.44513514267735993 0.0024399393090961262 0.70881260337093377 0.050111607142857152 0.16344260537137933 0.080194256756756774 0.17127602221169841 0.99913446054750421 0.94069260741937544 0.00089603391307813585 3.5000000000000004 0.025514635103567398 0.57793721054379554 4.5000000000000009 0.8528871182644141 0.033660399529964753 0.11064814814814818 0.13469341835339677 0.73507779760925007 0.20199676655399781 0.037620614035087728 0.21171535852963236
decision_type=2 2 2 2 2 2 2 2 2 2 2 2 2 2 2 2 2 2 2 2 2 2 2 2 2 2 2 2 2 2
left_child=3 2 10 4 5 7 -7 11 9 -6 12 24 26 14 -14 22 -10 -18 -9 -20 -11 -13 23 -16 -1 -26 27 29 -29 -2
right_child=1 -3 -4 -5 8 6 -8 18 16 20 -12 21 13 -15 15 -17 17 -19 19 -21 -22 -23 -24 -25 25 -27 -28 28 -30 -31
leaf_value=0.087977822438408931 -0.026024673605714213 -0.098734838470177388 -0.10180858863231042 0.10194162147278225 0.029839181273257243 0.054727797351108325 -0.18234258499516162 0.044806477488587404 0.085751116053395401 -0.20173231876554426 0.21382660085226057 0.10011581195172024 -0.13345805846023789 -0.10895183169171579 0.15866415170710321 -0.11563730571655922 0.082395481900759987 -0.06814576565453212 -0.17225797821048655 0.019820697581442739 -0.054907163886096025 0.031353238533793647 0.11347511323915119 -0.11070621261737675 -0.067487548558908109 0.059278720433282639 0.025640003429790611 0.0056981121067017663 -0.080309953687637964 0.08310814377819524
leaf_weight=93.545746356248856 23.085446482524276 100.90840421803296 22.909717936068773 187.8309556171298 14.111130550503733 6.7873969972133619 5.3987621106207371 56.025226686149836 26.370275288820267 5.9896814972162238 2.8827790208160868 236.9436479434371 5.0002091284841326 13.177410989999769 1.5411228165030504 3.76832191646099 6.412986457347869 8.7167607918381673 3.8965328419581038 7.7642006799578667 8.0460305064916593 14.656345084309576 8.9023969694972021 3.440306581556797 4.7182042822241774 160.75665571540594 141.12167750112712 86.100750405341387 32.113366544246674 28.122303836047649
leaf_count=248 140 5819 1363 506 32 12 36 153 62 25 27 635 41 404 3 51 14 29 37 56 24 41 47 65 14 420 624 442 696 72
internal_value=0 -0.0213027 -0.000307827 0.0744327 0.0666055 0.0728245 -0.0503001 0.075419 0.0138791 -0.043665 0.00635019 0.0815132 0.00462342 -0.0464676 -0.010119 0.0248185 0.0529077 -0.00433644 0.0294445 -0.044364 -0.117564 0.0961102 0.0629407 -0.0273701 0.0673343 0.0556642 0.0105182 -0.00207771 -0.0176663 0.033909
internal_weight=0 473.074 372.166 847.971 660.14 590.493 12.1862 578.307 69.6469 28.1468 349.256 510.621 346.373 35.8298 22.6524 17.6521 41.5 15.1297 67.686 11.6607 14.0357 251.6 13.8838 4.98143 259.021 165.475 310.544 169.422 118.214 51.2078
internal_count=12138 9794 3975 2344 1838 1652 48 1604 186 81 2612 1358 2585 611 207 166 105 43 246 93 49 676 115 68 682 434 1974 1350 1138 212
is_linear=0
shrinkage=0.1


Tree=25
num_leaves=31
num_cat=0
split_feature=3 3 2 7 9 5 1 4 6 7 0 4 9 1 0 2 9 1 9 0 1 8 1 5 2 6 8 8 1 10
split_gain=243.982 70.1336 22.5624 18.0807 19.7242 23.511 17.1063 16.1264 12.2581 23.2284 11.0252 10.7784 8.97402 7.84626 7.81889 7.57048 8.50404 8.02073 7.44072 9.4795 28.5117 10.515 6.32503 6.06368 5.63149 5.42609 9.81961 11.8525 9.48571 19.0775
threshold=1.0000000180025095e-35 2.5000000000000004 0.74878406954887233 0.91796369246932352 0.013489942516614974 1.0000000180025095e-35 0.13605555555555557 3.5000000000000004 3.5000000000000004 0.22091609873241133 0.71534580084470445 9.5000000000000018 0.16344260537137933 0.11155555555555556 0.023782488628979859 0.080194256756756774 0.17127602221169841 0.99913446054750421 0.11624947626874717 0.061088588588588601 0.99829282407407416 0.0082951851862671701 0.13605555555555557 3.5000000000000004 0.025900900900900907 2.5000000000000004 0.030175533321829897 0.026114243019337523 0.9134661835748793 0.8234579906493279
decision_type=2 2 2 2 2 2 2 2 2 2 2 2 2 2 2 2 2 2 2 2 2 2 2 2 2 2 2 2 2 2
left_child=3 2 10 4 7 14 -7 -1 11 -10 12 18 24 -9 -6 16 -14 -18 -8 -20 23 -22 -3 -21 -2 -26 27 28 -27 -30
right_child=1 22 -4 -5 5 6 8 13 9 -11 -12 -13 15 -15 -16 -17 17 -19 19 20 21 -23 -24 -25 25 26 -28 -29 29 -31
leaf_value=0.098975141343029982 -0.1233631526464893 0.092191485221090275 -0.10163409402379152 0.10151422427525097 0.05432558636001298 -0.15615989509035216 0.05699061504944028 0.078300028811903677 0.12433252867587502 -0.19554417310180142 0.19789935505714529 -0.065646395462431714 -0.13010118739468599 0.033963548780006833 0.10727737073260556 -0.10819751002802327 0.056094715882494331 -0.11416418047820631 0.045643606345153881 -0.31573706901320775 -0.081350825038543684 0.099094188026136579 -0.10171276679333462 -0.11954371811438896 0.016185362820800363 -0.062262305016882152 -0.11126259462428473 0.20331696158432894 0.31092028248557785 -0.0055557068989166396
leaf_weight=195.07922630012035 3.1616999655961981 1.7142264060676087 20.763348220847547 161.15124481916428 57.920329876244068 5.2974281683564177 93.924512397497892 79.782791547477245 3.5284138219431025 6.3658952377736568 2.9587970189750186 10.264034643769262 4.6350867617875364 79.87888552993536 53.776752233505249 12.094221572391687 13.950390698388221 3.451465440914034 29.304487127810717 3.2265538983047035 4.9792643617838612 9.1891836719587427 90.157652474008501 3.0782036418095231 262.49300012737513 17.60838428512216 9.6001000246033055 2.7257366040721527 2.3097277469933024 10.863821243867276
leaf_count=567 28 9 1363 470 164 23 247 212 12 34 22 33 41 227 149 406 115 51 79 20 24 32 5810 51 1404 160 259 11 22 93
internal_value=0 -0.0199655 -0.000386769 0.071597 0.0640117 0.0442136 0.0207027 0.0796862 0.0264204 -0.0814728 0.00569164 0.033354 0.0040331 0.0561184 0.0798193 -0.0446245 -0.0097346 0.0223257 0.0404251 0.00916811 -0.0430414 0.0356798 -0.0980947 -0.219949 0.0094118 0.0107855 -0.0220957 0.003451 -0.0142471 0.0499323
internal_weight=0 458.488 366.616 796.747 635.596 280.855 169.158 354.741 163.861 9.89431 345.852 153.966 342.894 159.662 111.697 34.1312 22.0369 17.4019 143.702 49.7777 20.4732 14.1684 91.8719 6.30476 308.762 305.601 43.1078 33.5077 30.7819 13.1735
internal_count=12138 9794 3975 2344 1874 868 555 1006 532 46 2612 486 2590 439 313 613 207 166 453 206 127 56 5819 71 1977 1949 545 286 275 115
is_linear=0
shrinkage=0.1


Tree=26
num_leaves=31
num_cat=0
split_feature=3 3 2 7 4 0 5 1 2 7 7 8 8 0 9 5 7 10 1 7 0 8 1 0 1 8 5 9 7 2
split_gain=213.899 64.195 20.2454 17.8905 19.4951 16.2736 17.7685 15.2886 14.0792 12.9183 12.1299 10.6863 9.70762 7.94481 8.21192 7.81863 9.96197 7.31021 7.12281 6.81141 8.7539 6.40079 6.08261 5.74031 5.71922 5.69334 5.60241 5.36259 5.1156 11.7703
threshold=1.0000000180025095e-35 2.5000000000000004 0.74878406954887233 0.91006810197149945 8.5000000000000018 0.061088588588588601 1.5000000000000002 0.99829282407407416 0.050111607142857152 0.44513514267735993 0.48835594648037367 0.0024399393090961262 0.0082951851862671701 0.71534580084470445 0.18165845208923401 1.0000000180025095e-35 0.8528871182644141 0.94069260741937544 0.11064814814814818 0.81765898736412368 0.0035495704528688038 0.030175533321829897 0.098128019323671503 0.003809494801819364 0.13605555555555557 0.18632997261657516 3.5000000000000004 0.099681597870295541 0.73507779760925007 0.15143914473684214
decision_type=2 2 2 2 2 2 2 2 2 2 2 2 2 2 2 2 2 2 2 2 2 2 2 2 2 2 2 2 2 2
left_child=3 2 13 4 5 8 -7 10 18 11 26 -6 -9 14 25 16 -16 -11 -1 20 -20 -13 -10 -19 -3 28 -8 -12 29 -2
right_child=1 24 -4 -5 9 6 7 12 22 17 27 21 -14 -15 15 -17 -18 23 19 -21 -22 -23 -24 -25 -26 -27 -28 -29 -30 -31
leaf_value=0.082956898021883441 0.00018479168765600678 0.08178795904215018 -0.10147665137187356 0.098554969811697701 0.022253439372068435 0.083947285932198912 -0.32770417156275028 -0.083913450571502179 0.00046690563349364848 0.081408585017749752 0.041654326544678544 -0.15429915786249854 0.075801280897449752 0.16014608615481474 -0.11145254664905294 -0.10769819241773924 0.30501784176565544 0.056279690057308332 -0.052637434641959052 0.080414815887115854 0.043257110150533955 -0.017538353607230144 0.096751304059331578 -0.068886888241794272 -0.10154895995813591 0.1365116717649566 -0.11937624620602467 -0.096832937034641964 0.018461697071636526 -0.10819113595142976
leaf_weight=81.098680816590786 158.37281857058406 1.737708132714032 18.815120350569487 158.99682115018368 13.363283932209017 24.82873660326004 2.5834278576076057 5.158837676979604 6.7900507375597945 23.822065703570843 4.7939594611525518 8.9110001027584058 14.507722322829066 3.2714045569300643 1.1591504029929631 11.140048305504022 1.1384377880021928 7.0992584675550443 10.309799134731291 46.192571960389614 124.18471856415272 5.5560033544898024 194.60723340883851 7.5720834955573082 81.702911817468703 3.3443140583112827 2.5800192099995911 6.7094590831547976 155.40751624107361 10.698166975751517
leaf_count=248 1024 9 1363 506 32 70 18 25 23 62 12 34 46 22 31 348 15 18 36 127 355 15 602 25 5810 25 53 37 746 401
internal_value=0 -0.0186316 -0.000466933 0.0687797 0.0607648 0.067226 0.0187455 -0.0258107 0.0736278 0.00968317 -0.0962749 -0.042221 0.0339057 0.00504928 0.00356248 -0.0730567 0.0949054 0.0472093 0.0583357 0.0472848 0.0359062 -0.101777 0.0935051 -0.00832052 -0.0977308 0.00670314 -0.223609 -0.0391195 0.00536524 -0.00667282
internal_weight=0 446.788 363.347 749.666 590.669 524.345 61.1622 36.3334 463.183 66.3237 16.6669 27.8303 19.6666 344.532 341.26 13.4376 2.29759 38.4934 261.786 180.687 134.495 14.467 201.397 14.6713 83.4406 327.823 5.16345 11.5034 324.479 169.071
internal_count=12138 9794 3975 2344 1838 1652 261 191 1391 186 120 81 71 2612 2590 394 46 105 766 518 391 49 625 43 5819 2196 71 49 2171 1425
is_linear=0
shrinkage=0.1


Tree=27
num_leaves=31
num_cat=0
split_feature=3 3 2 7 9 5 4 1 4 0 7 5 7 4 1 5 8 9 0 10 1 1 7 9 9 1 1 0 9 1
split_gain=187.132 58.7512 18.1948 17.6557 18.2438 20.7672 16.41 14.1688 10.4086 21.7922 29.184 11.7869 11.7041 20.5447 13.956 10.1562 10.6882 9.43761 8.09864 7.86689 7.46412 9.96537 7.76643 6.47425 6.68558 8.95839 6.38737 5.96181 7.12127 7.97689
threshold=1.0000000180025095e-35 2.5000000000000004 0.74878406954887233 0.91796369246932352 0.013489942516614974 1.0000000180025095e-35 3.5000000000000004 0.11700000000000001 1.0000000180025095e-35 0.061088588588588601 0.51206490302535346 2.5000000000000004 0.40097026081843629 4.5000000000000009 0.44583333333333341 2.5000000000000004 0.014439686943054928 0.094929909818699865 0.023782488628979859 0.66681547619047621 0.15474537037037039 0.21527777777777782 0.25306494883377201 0.00093047475430819602 0.003988922874976362 0.11797504025764897 0.29722222222222228 0.71534580084470445 0.17561625762671756 0.92765700483091795
decision_type=2 2 2 2 2 2 2 2 2 2 2 2 2 2 2 2 2 2 2 2 2 2 2 2 2 2 2 2 2 2
left_child=3 2 23 4 6 18 -1 -7 15 12 11 -11 13 -10 -15 -9 -17 -12 -6 -18 22 -22 -8 -2 26 -26 -25 28 -27 -30
right_child=1 -3 -4 -5 5 7 20 8 9 10 17 -13 -14 14 -16 16 19 -19 -20 -21 21 -23 -24 24 25 27 -28 -29 29 -31
leaf_value=0.095907682040817843 -0.18225287567927739 -0.097363406948295525 -0.10133453880368049 0.098327175809385783 0.047943164903558898 -0.18363794698582006 0.0042090126580658586 0.10315694154374909 0.0483098253847353 -0.39775248570640964 0.083706198043666857 -0.12766309529840025 0.05897478291102598 -0.22855494700711679 -0.033449512512406319 -0.10026813978068894 -0.035826862647859024 -0.084624000578413142 0.10540372619036245 0.08975734909825081 -0.033512690584486061 0.057815368140217406 0.07887857726570964 0.068597264256110249 -0.091314755982040127 0.0062827900195200452 -0.032916023502923365 0.13315483709891793 0.038714439892049576 -0.10599319295691856
leaf_weight=166.79822742938995 1.8461215421557415 75.787284964695573 17.047284899279475 136.183559153229 52.922453228384256 3.471932351589202 16.842005729675293 24.828252002596855 20.955082125961781 3.3253750242292908 6.1160555779933912 3.1429229518398643 44.912136375904083 5.648445479571822 10.447288878262041 6.2150307171978083 7.4804916610009995 7.3136142361909151 45.718039706349373 14.97073578648269 21.191458772867918 27.390390515327454 80.547751262784004 28.129904646426439 10.224128749221562 274.04429961554706 7.9501425400376311 3.5257858149707308 5.609745308756831 11.869310800917445
leaf_count=567 12 5819 1363 470 164 15 50 73 55 18 18 45 122 25 35 35 48 34 149 32 72 80 237 81 94 1893 35 22 107 368
internal_value=0 -0.0173339 -0.000497592 0.065977 0.0582512 0.038537 0.0744797 0.0161553 0.0206204 0.0018625 -0.0920128 -0.266517 0.0246524 -0.0169524 -0.101917 0.0563379 0.0157873 -0.00796412 0.0745751 0.0479141 0.0499945 0.017978 0.0659657 0.00451115 0.00552121 0.000709975 0.0462291 0.00389884 0.00233558 -0.0595506
internal_weight=0 436.034 360.247 706.421 570.238 257.468 312.77 158.827 155.355 101.861 19.898 6.4683 81.963 37.0508 16.0957 53.4945 28.6663 13.4297 98.6405 22.4512 145.972 48.5818 97.3898 343.199 341.353 305.273 36.08 295.049 291.523 17.4791
internal_count=12138 9794 3975 2344 1874 868 1006 555 540 352 115 63 237 115 60 188 115 52 313 80 439 152 287 2612 2600 2484 116 2390 2368 475
is_linear=0
shrinkage=0.1


Tree=28
num_leaves=31
num_cat=0
split_feature=3 3 7 4 7 9 2 9 9 2 5 8 2 2 7 10 1 1 0 1 9 9 1 0 8 1 5 0 9 5
split_gain=163.879 53.4926 17.2022 16.809 23.7975 17.2534 16.3681 10.3599 26.4592 10.573 7.63401 7.30856 7.09265 6.86238 6.52406 5.9774 5.93782 10.8863 10.6368 5.77273 5.53787 5.42501 7.67457 5.35923 5.33833 5.18333 4.94644 4.51417 6.24373 6.63096
threshold=1.0000000180025095e-35 2.5000000000000004 0.91796369246932352 4.5000000000000009 0.44993009213842711 0.11374029824390437 0.74878406954887233 0.011084037358242526 0.033454855330425685 0.048094634813384822 4.5000000000000009 0.032433935731602158 0.039125844594594596 0.035825892857142862 0.27704821466250912 0.9542729901275453 0.14694444444444449 0.22695249597423514 0.005941979877355427 0.13605555555555557 0.00093047475430819602 0.003988922874976362 0.11797504025764897 0.002191402166850299 0.019573325451316233 0.29722222222222228 4.5000000000000009 0.71534580084470445 0.18165845208923401 1.0000000180025095e-35
decision_type=2 2 2 2 2 2 2 2 2 2 2 2 2 2 2 2 2 2 2 2 2 2 2 2 2 2 2 2 2 2
left_child=2 6 3 5 7 10 20 13 -9 14 12 24 -1 23 -10 -12 -6 18 -18 -3 -2 25 -23 -5 -7 -22 -4 28 -24 -30
right_child=1 19 26 4 16 11 -8 8 9 -11 15 -13 -14 -15 -16 -17 17 -19 -20 -21 21 22 27 -25 -26 -27 -28 -29 29 -31
leaf_value=0.056367387108577006 -0.17326246709720405 0.083527822219800596 0.10191825924337475 0.024699804586744763 0.081625436763327619 -0.00039970453433909784 -0.10120625790570355 -0.23824249029630049 -0.045517819833848755 -0.12368954783163846 -0.049298005092750945 0.052730389737270594 0.090871885573178504 0.07945076489656791 0.082920878263098741 0.080157379904718981 0.044445479647928769 0.068006009537845455 -0.080735049154974134 -0.10127221976025602 0.061822047629489944 -0.086950751160449216 0.0050985073056943105 -0.085514682566809774 -0.11645925089606834 -0.029531040633965444 0.02054686444264657 0.11270265938888127 0.079494893588357235 -0.10692758792448412
leaf_weight=83.767419576644897 1.7525774985551823 1.7338795028626908 117.17636713758111 11.387687787413602 52.176757805049419 21.593200102448467 15.443578829057513 6.6827305704355267 6.6950614340603414 6.1239396291784933 8.2542747482657415 26.321968316566199 206.26973576843739 11.82099601253867 9.6625204384326917 6.2806870192289344 14.986198097467424 44.113898877054453 12.408046275377272 67.33392174821347 28.093241669237614 9.6916657723486406 279.11064499802887 7.2022355645894995 4.8540900568477801 7.9739444591104975 7.9792053550481787 3.7365841902792445 2.3930220995098344 9.413913735188542
leaf_count=279 12 9 446 28 165 94 1363 30 24 34 32 112 743 30 21 13 42 129 47 5810 81 94 1974 26 25 35 24 22 46 348
internal_value=0 -0.0160648 0.0633227 0.0555884 0.0309655 0.0682161 -0.000504016 -0.0209573 -0.06354 -0.011609 0.0773623 0.0154263 0.0809064 0.0198798 0.0303517 0.00664082 0.055975 0.0372589 -0.0122542 -0.096633 0.00404116 0.00495399 0.000608186 -0.0180002 -0.0217011 0.0416252 0.0967305 0.00348815 0.00208538 -0.0691436
internal_weight=0 426.677 665.757 540.601 183.26 357.341 357.609 59.5752 29.1643 22.4815 304.572 52.7693 290.037 30.4109 16.3576 14.535 123.685 71.5081 27.3942 69.0678 342.166 340.413 304.346 18.5899 26.4473 36.0672 125.156 294.654 290.918 11.8069
internal_count=12138 9794 2344 1874 576 1298 3975 193 109 79 1067 231 1022 84 45 45 383 218 89 5819 2612 2600 2484 54 119 116 470 2390 2368 394
is_linear=0
shrinkage=0.1


Tree=29
num_leaves=31
num_cat=0
split_feature=3 3 7 9 5 4 2 1 6 10 0 1 7 4 7 8 10 2 7 2 1 9 8 2 5 6 9 8 8 2
split_gain=142.904 48.8883 16.9553 16.2526 17.9975 16.4203 14.7342 10.2843 8.73736 15.9263 8.3908 6.74745 6.35889 6.35544 13.3002 9.33404 7.81729 5.37949 10.3127 14.6227 5.24623 5.03383 6.26023 5.03338 4.96145 4.75801 10.901 8.24806 7.85322 7.48519
threshold=1.0000000180025095e-35 2.5000000000000004 0.91796369246932352 0.013489942516614974 1.0000000180025095e-35 3.5000000000000004 0.74878406954887233 0.13605555555555557 3.5000000000000004 0.22747136531654508 0.023782488628979859 0.11155555555555556 0.85716295258829689 4.5000000000000009 0.41257413655351566 0.037296738855567675 0.34380395787874724 0.057675438596491234 0.55759962038966937 0.035330725462304417 0.13605555555555557 0.11624947626874717 0.0078530302390427652 0.025900900900900907 4.5000000000000009 2.5000000000000004 0.30101481584876549 0.030175533321829897 0.026114243019337523 0.04854307432432433
decision_type=2 2 2 2 2 2 2 2 2 2 2 2 2 2 2 2 2 2 2 2 2 2 2 2 2 2 2 2 2 2
left_child=2 6 3 5 10 -1 23 -6 12 -10 -5 -7 13 21 15 16 -15 18 19 -13 -3 -9 -23 -2 -4 -25 27 28 29 -27
right_child=1 20 24 4 7 11 -8 8 9 -11 -12 17 -14 14 -16 -17 -18 -19 -20 -21 -22 22 -24 25 -26 26 -28 -29 -30 -31
leaf_value=0.092848608121936543 -0.12335046370025977 0.074271946408314804 0.1009167129308251 0.041735425828592077 -0.11968272869556287 0.06769139970968846 -0.10109041217891467 0.051324833495817325 0.11100741406923623 -0.16994210842487489 0.10387762932432193 -0.1547854162620157 0.086075990096756802 -0.04858823931481196 0.041451435536422443 -0.0043520973374935679 -0.23071363400041212 0.098517299014763915 0.037406991884774997 0.032779028587471774 -0.10115079126874411 -0.07529162019977427 0.026427819466536537 0.009677189005818437 0.01872451662550241 -0.1481232102491343 0.26615714705171462 -0.10907594028149954 0.13859034153426927 -0.0059521014127906311
